{"learner":{"attributes":{"scikit_learn":"{\"_estimator_type\": \"regressor\"}"},"feature_names":[],"feature_types":[],"gradient_booster":{"model":{"cats":{"enc":[],"feature_segments":[],"sorted_idx":[]},"gbtree_model_param":{"num_parallel_tree":"1","num_trees":"300"},"iteration_indptr":[0,1,2,3,4,5,6,7,8,9,10,11,12,13,14,15,16,17,18,19,20,21,22,23,24,25,26,27,28,29,30,31,32,33,34,35,36,37,38,39,40,41,42,43,44,45,46,47,48,49,50,51,52,53,54,55,56,57,58,59,60,61,62,63,64,65,66,67,68,69,70,71,72,73,74,75,76,77,78,79,80,81,82,83,84,85,86,87,88,89,90,91,92,93,94,95,96,97,98,99,100,101,102,103,104,105,106,107,108,109,110,111,112,113,114,115,116,117,118,119,120,121,122,123,124,125,126,127,128,129,130,131,132,133,134,135,136,137,138,139,140,141,142,143,144,145,146,147,148,149,150,151,152,153,154,155,156,157,158,159,160,161,162,163,164,165,166,167,168,169,170,171,172,173,174,175,176,177,178,179,180,181,182,183,184,185,186,187,188,189,190,191,192,193,194,195,196,197,198,199,200,201,202,203,204,205,206,207,208,209,210,211,212,213,214,215,216,217,218,219,220,221,222,223,224,225,226,227,228,229,230,231,232,233,234,235,236,237,238,239,240,241,242,243,244,245,246,247,248,249,250,251,252,253,254,255,256,257,258,259,260,261,262,263,264,265,266,267,268,269,270,271,272,273,274,275,276,277,278,279,280,281,282,283,284,285,286,287,288,289,290,291,292,293,294,295,296,297,298,299,300],"tree_info":[0,0,0,0,0,0,0,0,0,0,0,0,0,0,0,0,0,0,0,0,0,0,0,0,0,0,0,0,0,0,0,0,0,0,0,0,0,0,0,0,0,0,0,0,0,0,0,0,0,0,0,0,0,0,0,0,0,0,0,0,0,0,0,0,0,0,0,0,0,0,0,0,0,0,0,0,0,0,0,0,0,0,0,0,0,0,0,0,0,0,0,0,0,0,0,0,0,0,0,0,0,0,0,0,0,0,0,0,0,0,0,0,0,0,0,0,0,0,0,0,0,0,0,0,0,0,0,0,0,0,0,0,0,0,0,0,0,0,0,0,0,0,0,0,0,0,0,0,0,0,0,0,0,0,0,0,0,0,0,0,0,0,0,0,0,0,0,0,0,0,0,0,0,0,0,0,0,0,0,0,0,0,0,0,0,0,0,0,0,0,0,0,0,0,0,0,0,0,0,0,0,0,0,0,0,0,0,0,0,0,0,0,0,0,0,0,0,0,0,0,0,0,0,0,0,0,0,0,0,0,0,0,0,0,0,0,0,0,0,0,0,0,0,0,0,0,0,0,0,0,0,0,0,0,0,0,0,0,0,0,0,0,0,0,0,0,0,0,0,0,0,0,0,0,0,0,0,0,0,0,0,0,0,0,0,0,0,0,0,0,0,0,0,0,0,0,0,0,0,0],"trees":[{"base_weights":[1.1997012E-2,2.2937682E-1,-9.037231E-1,-1.0419524E0,4.3260688E-1,-5.4679936E-1,-1.1901261E0,-3.4476176E-1,-1.1035607E0,7.3249763E-1,-2.366136E-2,-1.4960375E-1,-7.2637135E-1,-2.6573244E-1,-1.2652105E0,-5.8164805E-1,5.023194E-1,-9.277547E-1,-1.2395685E0,1.1646448E0,5.5859154E-1,-6.3143694E-1,5.525057E-3,-1.0475746E0,1.4777957E-2,-7.592653E-1,5.9118934E-2,-2.8135171E-2,-5.5841617E-2,-6.574706E-1,-1.303145E0,-3.0651248E-1,-8.8386786E-1,3.6809236E-2,2.305921E-2,-8.407481E-1,-1.22475E0,-1.1986375E-2,-1.2517061E0,8.9638256E-2,1.2456088E0,6.536239E-1,1.142791E-1,-4.5278904E-1,-1.1331129E0,2.9418288E-2,-6.039648E-1,-7.412138E-2,-7.862265E-1,1.3786066E-1,-4.7720578E-2,-9.354094E-1,-5.5582976E-1,-4.603474E-1,9.632791E-2,1.3069576E-1,-6.111283E-2,-1.1495271E0,-1.3965075E0,-3.5260495E-2,1.0485998E-2,-2.3172008E-2,-6.467713E-2,3.3926845E-3,-1.6632437E-3,-6.022165E-2,-3.8463708E-2,-6.2627725E-2,-1.3935995E-2,-5.947989E-2,-7.343723E-2,1.969776E-2,-3.311113E-2,7.897556E-2,4.29372E-2,3.009074E-2,6.352261E-2,-2.4773419E-2,1.7851764E-2,-6.055076E-2,-1.299418E-2,-6.342509E-2,-4.634774E-3,4.8496183E-3,-9.919661E-3,-2.0145042E-2,-6.0351398E-2,-1.0732651E-2,-4.5943428E-2,-8.892647E-3,3.0975765E-2,-3.4542207E-2,-5.7011705E-2,-1.5281572E-2,-4.981782E-2,-3.8065996E-2,1.1064256E-2,8.435668E-3,-7.646886E-3,-5.4982426E-3,2.8422585E-2,-3.7604645E-2,-6.98474E-2,-8.8983655E-2,-6.5641224E-2],"categories":[],"categories_nodes":[],"categories_segments":[],"categories_sizes":[],"default_left":[0,0,0,0,0,0,0,0,0,0,0,0,0,0,0,0,0,0,0,0,0,0,0,0,0,0,0,0,0,0,0,0,0,0,0,0,0,0,0,0,0,0,0,0,0,0,0,0,0,0,0,0,0,0,0,0,0,0,0,0,0,0,0,0,0,0,0,0,0,0,0,0,0,0,0,0,0,0,0,0,0,0,0,0,0,0,0,0,0,0,0,0,0,0,0,0,0,0,0,0,0,0,0,0,0],"id":0,"left_children":[1,3,5,7,9,11,13,15,17,19,21,23,25,27,29,31,33,35,37,39,41,43,45,47,49,51,-1,-1,53,55,57,59,61,-1,63,65,67,-1,69,71,73,75,77,79,81,83,85,-1,87,89,-1,91,93,95,97,99,-1,101,103,-1,-1,-1,-1,-1,-1,-1,-1,-1,-1,-1,-1,-1,-1,-1,-1,-1,-1,-1,-1,-1,-1,-1,-1,-1,-1,-1,-1,-1,-1,-1,-1,-1,-1,-1,-1,-1,-1,-1,-1,-1,-1,-1,-1,-1,-1],"loss_changes":[5.177609E2,5.4354926E2,5.035901E1,1.2075836E1,2.4809131E2,1.5868179E1,1.8820312E1,5.3087206E0,5.2102966E0,8.156683E1,1.2775418E1,1.04957905E1,1.05668335E1,1.3398708E0,5.022064E0,1.3921118E0,6.555182E-1,2.0711594E0,1.4838867E0,2.713086E1,3.294452E1,2.4445105E0,1.0036893E1,8.460426E-2,7.4082932E0,4.9268265E0,0E0,0E0,9.060927E-1,7.727215E0,1.8224487E0,2.6177435E0,9.5066786E-1,0E0,9.826168E-3,1.5688858E0,3.0848694E-1,0E0,2.0736694E-1,5.5233774E0,3.623355E1,1.9815918E1,2.0751675E1,3.4881916E0,1.0093031E0,1.0225565E1,2.666298E0,0E0,4.8509455E-1,8.473752E0,0E0,3.219719E0,7.741474E0,9.8907954E-1,2.2427788E-1,9.053147E-1,0E0,8.389381E0,2.2808533E0,0E0,0E0,0E0,0E0,0E0,0E0,0E0,0E0,0E0,0E0,0E0,0E0,0E0,0E0,0E0,0E0,0E0,0E0,0E0,0E0,0E0,0E0,0E0,0E0,0E0,0E0,0E0,0E0,0E0,0E0,0E0,0E0,0E0,0E0,0E0,0E0,0E0,0E0,0E0,0E0,0E0,0E0,0E0,0E0,0E0,0E0],"parents":[2147483647,0,0,1,1,2,2,3,3,4,4,5,5,6,6,7,7,8,8,9,9,10,10,11,11,12,12,13,13,14,14,15,15,16,16,17,17,18,18,19,19,20,20,21,21,22,22,23,23,24,24,25,25,28,28,29,29,30,30,31,31,32,32,34,34,35,35,36,36,38,38,39,39,40,40,41,41,42,42,43,43,44,44,45,45,46,46,48,48,49,49,51,51,52,52,53,53,54,54,55,55,57,57,58,58],"right_children":[2,4,6,8,10,12,14,16,18,20,22,24,26,28,30,32,34,36,38,40,42,44,46,48,50,52,-1,-1,54,56,58,60,62,-1,64,66,68,-1,70,72,74,76,78,80,82,84,86,-1,88,90,-1,92,94,96,98,100,-1,102,104,-1,-1,-1,-1,-1,-1,-1,-1,-1,-1,-1,-1,-1,-1,-1,-1,-1,-1,-1,-1,-1,-1,-1,-1,-1,-1,-1,-1,-1,-1,-1,-1,-1,-1,-1,-1,-1,-1,-1,-1,-1,-1,-1,-1,-1,-1],"split_conditions":[4.1501155E-1,1.0308215E-2,7.9E-1,1.05E0,9.813875E-1,5.04E-1,4.3705714E-1,8.7E-1,1.014E0,1.01005E-1,7.751638E-2,1.8E-1,1.303E1,2.268E0,9.813875E-1,5.1266587E-1,9.5E-1,5.2701503E-1,2.16E0,3.6363637E-1,3.1248373E-1,2.544E0,1.04E1,1.0438596E0,9.9923134E-1,3.9E-1,5.9118934E-2,-2.8135171E-2,1.0005885E0,3.492E0,2.3E0,5.0151974E-1,8.4E-1,3.6809236E-2,2.52E-1,2.34E-1,9.9206346E-1,-1.1986375E-2,9.813875E-1,1.275E1,5.108173E-1,8.971292E-1,6.680162E-1,2.9E-1,6.102E0,3.7142327E-1,1.0639659E0,-7.412138E-2,1.1445242E0,1.1445242E0,-4.7720578E-2,9.87E-1,9.5236284E-1,3.404E1,1.1792452E0,2.022E0,-6.111283E-2,9.6546173E-1,1.776E0,-3.5260495E-2,1.0485998E-2,-2.3172008E-2,-6.467713E-2,3.3926845E-3,-1.6632437E-3,-6.022165E-2,-3.8463708E-2,-6.2627725E-2,-1.3935995E-2,-5.947989E-2,-7.343723E-2,1.969776E-2,-3.311113E-2,7.897556E-2,4.29372E-2,3.009074E-2,6.352261E-2,-2.4773419E-2,1.7851764E-2,-6.055076E-2,-1.299418E-2,-6.342509E-2,-4.634774E-3,4.8496183E-3,-9.919661E-3,-2.0145042E-2,-6.0351398E-2,-1.0732651E-2,-4.5943428E-2,-8.892647E-3,3.0975765E-2,-3.4542207E-2,-5.7011705E-2,-1.5281572E-2,-4.981782E-2,-3.8065996E-2,1.1064256E-2,8.435668E-3,-7.646886E-3,-5.4982426E-3,2.8422585E-2,-3.7604645E-2,-6.98474E-2,-8.8983655E-2,-6.5641224E-2],"split_indices":[7,7,1,3,6,0,7,3,0,7,7,0,3,0,6,6,3,6,3,6,7,0,1,6,7,1,0,0,6,0,1,6,3,0,0,0,6,0,6,3,6,6,6,1,0,7,6,0,6,6,0,0,7,3,6,0,0,7,0,0,0,0,0,0,0,0,0,0,0,0,0,0,0,0,0,0,0,0,0,0,0,0,0,0,0,0,0,0,0,0,0,0,0,0,0,0,0,0,0,0,0,0,0,0,0],"split_type":[0,0,0,0,0,0,0,0,0,0,0,0,0,0,0,0,0,0,0,0,0,0,0,0,0,0,0,0,0,0,0,0,0,0,0,0,0,0,0,0,0,0,0,0,0,0,0,0,0,0,0,0,0,0,0,0,0,0,0,0,0,0,0,0,0,0,0,0,0,0,0,0,0,0,0,0,0,0,0,0,0,0,0,0,0,0,0,0,0,0,0,0,0,0,0,0,0,0,0,0,0,0,0,0,0],"sum_hessian":[2.599E3,2.101E3,4.98E2,2.89E2,1.812E3,2.23E2,2.75E2,2.4E1,2.65E2,1.093E3,7.19E2,7E1,1.53E2,2.1E1,2.54E2,1.9E1,5E0,1.19E2,1.46E2,3.12E2,7.81E2,3.2E1,6.87E2,1E1,6E1,1.51E2,2E0,8E0,1.3E1,1.6E1,2.38E2,1.1E1,8E0,3E0,2E0,9.5E1,2.4E1,2E0,1.44E2,2.2E1,2.9E2,6.43E2,1.38E2,2.5E1,7E0,6.62E2,2.5E1,2E0,8E0,5.4E1,6E0,7.9E1,7.2E1,3E0,1E1,7E0,9E0,9.5E1,1.43E2,6E0,5E0,5E0,3E0,1E0,1E0,1.3E1,8.2E1,2.3E1,1E0,1.17E2,2.7E1,1.6E1,6E0,1.54E2,1.36E2,5.95E2,4.8E1,3.9E1,9.9E1,4E0,2.1E1,6E0,1E0,5.11E2,1.51E2,2E1,5E0,2E0,6E0,3.3E1,2.1E1,3.8E1,4.1E1,4.7E1,2.5E1,2E0,1E0,8E0,2E0,5E0,2E0,3.8E1,5.7E1,2.2E1,1.21E2],"tree_param":{"num_deleted":"0","num_feature":"8","num_nodes":"105","size_leaf_vector":"1"}},{"base_weights":[5.5825217E-3,2.1257228E-1,-8.7803483E-1,-9.7387284E-1,4.1827202E-1,-6.2987614E-1,-1.2269995E0,-4.0350118E-1,-1.033543E0,5.259449E-1,-1.9129449E-1,-5.6289786E-1,-6.900102E-2,-3.23236E-2,-1.282256E0,-8.8154554E-1,9.976199E-2,-1.0570378E0,-2.086403E-1,9.656667E-1,4.1009936E-1,8.731918E-3,-8.1920403E-1,-2.4790406E-1,-6.757379E-1,-2.747252E-2,8.618498E-2,-1.0375503E0,-1.349197E0,-5.925304E-1,-1.1684892E0,-3.0566003E-2,2.3391074E-1,-9.391748E-1,-1.1373886E0,-4.1710964E-1,1.7366743E-2,1.1153216E0,3.8189295E-1,5.383157E-1,1.4008738E-1,2.0130788E-1,-1.23932935E-1,1.09836526E-1,-9.5152265E-1,-9.967339E-1,-1.2510721E-1,-1.2484404E0,-5.998797E-1,1.4820497E-2,-1.6223567E-2,-1.2048403E0,-4.631589E-1,-8.240594E-2,-1.2872792E0,-3.3642277E-2,3.2576441E-3,-6.297496E-2,-1.5560734E-2,1.0049078E-2,-1.8512292E-2,3.44537E-2,-1.6328016E-3,-6.475525E-2,-4.4477627E-2,-4.0935636E-3,-5.7181496E-2,-1.0677967E-2,-3.086618E-2,-6.641677E-3,5.7847995E-2,-6.396981E-2,2.4065493E-2,3.1966356E-5,2.9087815E-2,-3.3927783E-2,1.1532431E-2,1.4179799E-2,-9.806189E-3,-3.7903E-2,2.0088153E-5,1.862678E-2,-4.97939E-2,-6.334927E-2,-2.4852542E-2,-7.165067E-2,-3.5426866E-2,1.212418E-2,-1.5085942E-2,-7.403184E-2,-1.9123875E-2,3.2055493E-2,-3.1632897E-2,-4.5422595E-3,1.0787654E-2,-1.8477926E-2,-6.503487E-2,2.4963459E-2,-3.527857E-2,-4.4057716E-2,-6.771644E-2],"categories":[],"categories_nodes":[],"categories_segments":[],"categories_sizes":[],"default_left":[0,0,0,0,0,0,0,0,0,0,0,0,0,0,0,0,0,0,0,0,0,0,0,0,0,0,0,0,0,0,0,0,0,0,0,0,0,0,0,0,0,0,0,0,0,0,0,0,0,0,0,0,0,0,0,0,0,0,0,0,0,0,0,0,0,0,0,0,0,0,0,0,0,0,0,0,0,0,0,0,0,0,0,0,0,0,0,0,0,0,0,0,0,0,0,0,0,0,0,0,0],"id":1,"left_children":[1,3,5,7,9,11,13,15,17,19,21,23,-1,25,27,29,31,33,35,37,39,41,43,45,47,-1,49,51,53,55,57,59,61,63,65,67,-1,69,71,73,75,77,79,81,83,85,87,89,91,-1,93,95,97,-1,99,-1,-1,-1,-1,-1,-1,-1,-1,-1,-1,-1,-1,-1,-1,-1,-1,-1,-1,-1,-1,-1,-1,-1,-1,-1,-1,-1,-1,-1,-1,-1,-1,-1,-1,-1,-1,-1,-1,-1,-1,-1,-1,-1,-1,-1,-1],"loss_changes":[4.7316537E2,5.119392E2,4.174707E1,1.0133545E1,1.1738818E2,1.374353E1,1.3359314E1,7.5459905E0,5.2061157E0,7.698154E1,3.3793148E1,9.322708E0,0E0,6.60194E-1,1.7780151E0,6.34532E-1,2.8688312E-1,1.5077515E0,1.1880106E0,2.7181305E1,4.160704E1,5.262301E0,8.094917E0,6.495985E0,7.7661514E0,0E0,1.9856831E-1,3.8621063E0,6.3616943E-1,5.720568E-1,1.5416908E-1,7.822808E-1,9.931538E-1,8.967285E-1,9.4065857E-1,1.5344E-1,0E0,1.3198395E1,1.1516359E1,1.9058899E1,2.8995926E1,2.8027465E0,9.619271E0,2.9852316E0,7.5422783E0,2.4199867E-1,4.1631727E0,3.8573036E0,7.524147E0,0E0,1.4077345E-1,2.3216858E0,3.1519253E0,0E0,2.2921143E0,0E0,0E0,0E0,0E0,0E0,0E0,0E0,0E0,0E0,0E0,0E0,0E0,0E0,0E0,0E0,0E0,0E0,0E0,0E0,0E0,0E0,0E0,0E0,0E0,0E0,0E0,0E0,0E0,0E0,0E0,0E0,0E0,0E0,0E0,0E0,0E0,0E0,0E0,0E0,0E0,0E0,0E0,0E0,0E0,0E0,0E0],"parents":[2147483647,0,0,1,1,2,2,3,3,4,4,5,5,6,6,7,7,8,8,9,9,10,10,11,11,13,13,14,14,15,15,16,16,17,17,18,18,19,19,20,20,21,21,22,22,23,23,24,24,26,26,27,27,28,28,29,29,30,30,31,31,32,32,33,33,34,34,35,35,37,37,38,38,39,39,40,40,41,41,42,42,43,43,44,44,45,45,46,46,47,47,48,48,50,50,51,51,52,52,54,54],"right_children":[2,4,6,8,10,12,14,16,18,20,22,24,-1,26,28,30,32,34,36,38,40,42,44,46,48,-1,50,52,54,56,58,60,62,64,66,68,-1,70,72,74,76,78,80,82,84,86,88,90,92,-1,94,96,98,-1,100,-1,-1,-1,-1,-1,-1,-1,-1,-1,-1,-1,-1,-1,-1,-1,-1,-1,-1,-1,-1,-1,-1,-1,-1,-1,-1,-1,-1,-1,-1,-1,-1,-1,-1,-1,-1,-1,-1,-1,-1,-1,-1,-1,-1,-1,-1],"split_conditions":[4.1501155E-1,1.4888214E-2,1.5E0,8.5E-1,3.5489863E-1,9.998959E-1,4.3705714E-1,8.2E-1,1.0308215E-2,9.479833E-2,1.63E0,8.35E-1,-6.900102E-2,1.66E0,2.3E0,6.25E-1,8.7E-1,1.69E0,1.18E0,3.57E0,3.29E0,1.87E0,3.6230835E-1,3E-1,1.28E0,-2.747252E-2,4.2793825E-1,4.955E0,2.955E0,2.9E-1,1.0308215E-2,8.4E-1,9.5E-1,3.9E-1,2.17E0,1.855E0,1.7366743E-2,6.5E-1,7.95E0,3.4E-1,7.5E0,4.0854034E-1,2.17E0,2E0,3.849865E-1,9.98004E-1,3.8E-1,9.997675E-1,8.5E-1,1.4820497E-2,3.404E1,9.1488063E-1,5.82E0,-8.240594E-2,4.03E0,-3.3642277E-2,3.2576441E-3,-6.297496E-2,-1.5560734E-2,1.0049078E-2,-1.8512292E-2,3.44537E-2,-1.6328016E-3,-6.475525E-2,-4.4477627E-2,-4.0935636E-3,-5.7181496E-2,-1.0677967E-2,-3.086618E-2,-6.641677E-3,5.7847995E-2,-6.396981E-2,2.4065493E-2,3.1966356E-5,2.9087815E-2,-3.3927783E-2,1.1532431E-2,1.4179799E-2,-9.806189E-3,-3.7903E-2,2.0088153E-5,1.862678E-2,-4.97939E-2,-6.334927E-2,-2.4852542E-2,-7.165067E-2,-3.5426866E-2,1.212418E-2,-1.5085942E-2,-7.403184E-2,-1.9123875E-2,3.2055493E-2,-3.1632897E-2,-4.5422595E-3,1.0787654E-2,-1.8477926E-2,-6.503487E-2,2.4963459E-2,-3.527857E-2,-4.4057716E-2,-6.771644E-2],"split_indices":[7,7,1,2,7,7,7,2,7,7,1,2,0,1,1,2,3,1,1,1,4,2,7,4,3,0,7,2,2,1,7,2,3,4,2,2,0,2,3,1,3,7,2,1,7,7,2,7,2,0,3,7,4,0,2,0,0,0,0,0,0,0,0,0,0,0,0,0,0,0,0,0,0,0,0,0,0,0,0,0,0,0,0,0,0,0,0,0,0,0,0,0,0,0,0,0,0,0,0,0,0],"split_type":[0,0,0,0,0,0,0,0,0,0,0,0,0,0,0,0,0,0,0,0,0,0,0,0,0,0,0,0,0,0,0,0,0,0,0,0,0,0,0,0,0,0,0,0,0,0,0,0,0,0,0,0,0,0,0,0,0,0,0,0,0,0,0,0,0,0,0,0,0,0,0,0,0,0,0,0,0,0,0,0,0,0,0,0,0,0,0,0,0,0,0,0,0,0,0,0,0,0,0,0,0],"sum_hessian":[2.585E3,2.095E3,4.9E2,3.09E2,1.786E3,2.88E2,2.02E2,3E1,2.79E2,1.518E3,2.68E2,2.66E2,2.2E1,9E0,1.93E2,1.5E1,1.5E1,2.71E2,8E0,3.15E2,1.203E3,2.04E2,6.4E1,7.1E1,1.95E2,1E0,8E0,4.5E1,1.48E2,9E0,6E0,8E0,7E0,1.15E2,1.56E2,6E0,2E0,2.5E2,6.5E1,8.15E2,3.88E2,8.3E1,1.21E2,8E0,5.6E1,9E0,6.2E1,2.1E1,1.74E2,2E0,6E0,3.4E1,1.1E1,2.1E1,1.27E2,8E0,1E0,5E0,1E0,5E0,3E0,2E0,5E0,1.1E1,1.04E2,1E0,1.55E2,4E0,2E0,8E0,2.42E2,3E0,6.2E1,6.1E1,7.54E2,3.8E1,3.5E2,6.9E1,1.4E1,1.9E1,1.02E2,7E0,1E0,3.2E1,2.4E1,2E0,7E0,2E1,4.2E1,1.6E1,5E0,4E0,1.7E2,5E0,1E0,4E0,3E1,2E0,9E0,2E1,1.07E2],"tree_param":{"num_deleted":"0","num_feature":"8","num_nodes":"101","size_leaf_vector":"1"}},{"base_weights":[-1.4867764E-3,1.9460319E-1,-8.582585E-1,-9.7786456E-1,3.8990673E-1,-6.233093E-1,-1.1921083E0,-6.07766E-1,-1.0106456E0,4.8274955E-1,-1.3320982E-1,-4.9760452E-1,-1.1399367E0,-2.0996016E-1,-1.2270039E0,-9.2231506E-1,-2.9463902E-1,-9.6003467E-1,-1.2092266E0,6.037218E-1,2.2221532E-1,-3.9182328E-2,-6.643122E-1,-5.891791E-1,3.167756E-1,-8.6667687E-1,-7.056964E-2,-2.79111E-2,-8.3589554E-4,-9.66256E-1,-1.2984778E0,-2.816771E-2,-6.236052E-2,-5.191024E-2,-5.646276E-1,-1.0028479E0,-5.422823E-1,-1.2973651E0,-7.6276857E-1,9.1983485E-1,4.9704483E-1,-1.240447E0,2.7442518E-1,1.9457585E-1,-1.5137498E-1,-1.088087E0,-2.853542E-1,-4.8782417E-1,-7.699338E-1,-5.83284E-1,4.7313094E-1,-9.978283E-1,-1.1353875E-2,-1.23847604E-1,8.172917E-3,-1.1328027E0,-3.484934E-1,-1.2245976E0,-7.6771475E-2,-3.4193452E-2,1.8902367E-2,-3.650734E-2,-1.2897578E-2,-5.040994E-2,1.8168212E-3,-3.0455073E-2,5.3106467E-3,-4.766574E-2,-7.176716E-2,-1.7548596E-2,-4.7397103E-2,5.882836E-3,5.212301E-2,2.6065404E-2,-1.8407213E-2,5.9990766E-3,-6.664863E-2,1.6975062E-2,-1.8315172E-2,-1.714022E-2,1.5034548E-2,-2.9527355E-2,-2.8175297E-3,-6.49667E-2,-3.8401566E-2,3.723832E-2,-2.7070997E-2,-3.0380351E-2,-6.910802E-3,-1.50630465E-2,-4.7055367E-2,-3.4912538E-2,-5.959594E-3,4.1908022E-2,-6.1087374E-4,-3.9387695E-2,-6.535537E-2,5.2186013E-3,-6.1647575E-3,-1.5268485E-2,1.0517967E-2,-2.0363113E-2,-6.2007535E-2,2.4131346E-2,-2.93406E-2,-6.580506E-2,-4.1761007E-2],"categories":[],"categories_nodes":[],"categories_segments":[],"categories_sizes":[],"default_left":[0,0,0,0,0,0,0,0,0,0,0,0,0,0,0,0,0,0,0,0,0,0,0,0,0,0,0,0,0,0,0,0,0,0,0,0,0,0,0,0,0,0,0,0,0,0,0,0,0,0,0,0,0,0,0,0,0,0,0,0,0,0,0,0,0,0,0,0,0,0,0,0,0,0,0,0,0,0,0,0,0,0,0,0,0,0,0,0,0,0,0,0,0,0,0,0,0,0,0,0,0,0,0,0,0,0,0],"id":2,"left_children":[1,3,5,7,9,11,13,15,17,19,21,23,25,27,29,31,33,35,37,39,41,43,45,47,49,51,-1,-1,53,55,57,-1,-1,59,61,63,65,67,69,71,73,75,77,79,81,83,85,87,89,91,93,95,97,99,-1,101,103,105,-1,-1,-1,-1,-1,-1,-1,-1,-1,-1,-1,-1,-1,-1,-1,-1,-1,-1,-1,-1,-1,-1,-1,-1,-1,-1,-1,-1,-1,-1,-1,-1,-1,-1,-1,-1,-1,-1,-1,-1,-1,-1,-1,-1,-1,-1,-1,-1,-1],"loss_changes":[4.3479425E2,4.826281E2,3.7063934E1,3.0375671E0,8.7777435E1,1.7941391E1,6.5283813E0,2.3875828E0,1.6029358E0,4.8213562E1,1.3607106E1,1.7413818E1,2.8565826E0,5.8217335E-1,2.3049011E0,8.1349945E-1,9.5370007E-1,3.4624786E0,1.0566177E0,3.484973E1,3.760671E1,6.1401E0,6.273817E0,3.435051E0,3.6534693E0,3.3539772E0,0E0,0E0,1.4150463E-1,4.2351074E0,6.931E-1,0E0,0E0,2.7039738E0,1.6698289E-1,1.1598511E0,1.0613294E0,6.254654E-1,5.060911E-1,2.574797E1,1.6670868E1,2.2998009E0,1.9804916E1,4.4369144E0,6.5603876E0,2.866764E-1,6.470137E0,5.6113014E0,5.5728607E0,1.3019478E-1,3.7307353E0,6.5958023E-1,7.7641085E-2,3.0690116E-1,0E0,2.2209167E0,2.4619973E0,3.0694275E0,0E0,0E0,0E0,0E0,0E0,0E0,0E0,0E0,0E0,0E0,0E0,0E0,0E0,0E0,0E0,0E0,0E0,0E0,0E0,0E0,0E0,0E0,0E0,0E0,0E0,0E0,0E0,0E0,0E0,0E0,0E0,0E0,0E0,0E0,0E0,0E0,0E0,0E0,0E0,0E0,0E0,0E0,0E0,0E0,0E0,0E0,0E0,0E0,0E0],"parents":[2147483647,0,0,1,1,2,2,3,3,4,4,5,5,6,6,7,7,8,8,9,9,10,10,11,11,12,12,13,13,14,14,15,15,16,16,17,17,18,18,19,19,20,20,21,21,22,22,23,23,24,24,25,25,28,28,29,29,30,30,33,33,34,34,35,35,36,36,37,37,38,38,39,39,40,40,41,41,42,42,43,43,44,44,45,45,46,46,47,47,48,48,49,49,50,50,51,51,52,52,53,53,55,55,56,56,57,57],"right_children":[2,4,6,8,10,12,14,16,18,20,22,24,26,28,30,32,34,36,38,40,42,44,46,48,50,52,-1,-1,54,56,58,-1,-1,60,62,64,66,68,70,72,74,76,78,80,82,84,86,88,90,92,94,96,98,100,-1,102,104,106,-1,-1,-1,-1,-1,-1,-1,-1,-1,-1,-1,-1,-1,-1,-1,-1,-1,-1,-1,-1,-1,-1,-1,-1,-1,-1,-1,-1,-1,-1,-1,-1,-1,-1,-1,-1,-1,-1,-1,-1,-1,-1,-1,-1,-1,-1,-1,-1,-1],"split_conditions":[4.1501155E-1,1.0308215E-2,1.5E0,1.66E0,3.5489863E-1,9.9923134E-1,4.3705714E-1,8.2E-1,8.495E0,1.974E0,2E0,9.987516E-1,9.998959E-1,5.976E0,2.3E0,8.4E-1,1.05E0,8.65E0,7.476E0,1.01005E-1,6.54E0,1.66E0,3.849865E-1,1.74E0,3.4E-1,1.18E0,-7.056964E-2,-2.79111E-2,4E0,4.955E0,8.32E0,-2.816771E-2,-6.236052E-2,8.6E-1,1.24E0,4.842E0,2.553E0,3.654E0,2.5225E1,2.6476039E-2,7.5E0,2.094E0,9.95E0,3.6479905E-1,2.17E0,4.842E0,3.9309803E-1,4E-1,4.3471816E-1,1.8E-1,3.8E-1,7.5E-1,1.4E0,3.404E1,8.172917E-3,9.1488063E-1,3.492E0,7.87E0,-7.6771475E-2,-3.4193452E-2,1.8902367E-2,-3.650734E-2,-1.2897578E-2,-5.040994E-2,1.8168212E-3,-3.0455073E-2,5.3106467E-3,-4.766574E-2,-7.176716E-2,-1.7548596E-2,-4.7397103E-2,5.882836E-3,5.212301E-2,2.6065404E-2,-1.8407213E-2,5.9990766E-3,-6.664863E-2,1.6975062E-2,-1.8315172E-2,-1.714022E-2,1.5034548E-2,-2.9527355E-2,-2.8175297E-3,-6.49667E-2,-3.8401566E-2,3.723832E-2,-2.7070997E-2,-3.0380351E-2,-6.910802E-3,-1.50630465E-2,-4.7055367E-2,-3.4912538E-2,-5.959594E-3,4.1908022E-2,-6.1087374E-4,-3.9387695E-2,-6.535537E-2,5.2186013E-3,-6.1647575E-3,-1.5268485E-2,1.0517967E-2,-2.0363113E-2,-6.2007535E-2,2.4131346E-2,-2.93406E-2,-6.580506E-2,-4.1761007E-2],"split_indices":[7,7,1,3,7,7,7,2,2,0,1,7,7,0,1,3,3,3,0,7,3,2,7,0,1,1,0,0,1,2,1,0,0,3,2,0,0,0,2,7,3,0,1,7,2,0,7,1,7,0,2,1,1,3,0,7,0,2,0,0,0,0,0,0,0,0,0,0,0,0,0,0,0,0,0,0,0,0,0,0,0,0,0,0,0,0,0,0,0,0,0,0,0,0,0,0,0,0,0,0,0,0,0,0,0,0,0],"split_type":[0,0,0,0,0,0,0,0,0,0,0,0,0,0,0,0,0,0,0,0,0,0,0,0,0,0,0,0,0,0,0,0,0,0,0,0,0,0,0,0,0,0,0,0,0,0,0,0,0,0,0,0,0,0,0,0,0,0,0,0,0,0,0,0,0,0,0,0,0,0,0,0,0,0,0,0,0,0,0,0,0,0,0,0,0,0,0,0,0,0,0,0,0,0,0,0,0,0,0,0,0,0,0,0,0,0,0],"sum_hessian":[2.586E3,2.105E3,4.81E2,3E2,1.805E3,2.84E2,1.97E2,2.6E1,2.74E2,1.533E3,2.72E2,2.3E2,5.4E1,7E0,1.9E2,1.2E1,1.4E1,2.23E2,5.1E1,1.046E3,4.87E2,2.32E2,4E1,2.07E2,2.3E1,2.9E1,2.5E1,2E0,5E0,4.4E1,1.46E2,7E0,5E0,8E0,6E0,2.01E2,2.2E1,4.1E1,1E1,2.62E2,7.84E2,1.6E1,4.71E2,7.5E1,1.57E2,1.8E1,2.2E1,1.35E2,7.2E1,3E0,2E1,2.5E1,4E0,3E0,2E0,3.4E1,1E1,1.16E2,3E1,3E0,5E0,3E0,3E0,2E2,1E0,2E1,2E0,1.4E1,2.7E1,4E0,6E0,3.5E1,2.27E2,7.63E2,2.1E1,1E0,1.5E1,4.28E2,4.3E1,1.2E1,6.3E1,2.7E1,1.3E2,9E0,9E0,4E0,1.8E1,1E2,3.5E1,2E1,5.2E1,2E0,1E0,1.1E1,9E0,1.7E1,8E0,2E0,2E0,2E0,1E0,5E0,2.9E1,2E0,8E0,9.2E1,2.4E1],"tree_param":{"num_deleted":"0","num_feature":"8","num_nodes":"107","size_leaf_vector":"1"}},{"base_weights":[-6.659428E-3,1.7692478E-1,-7.902821E-1,-8.995355E-1,3.5663095E-1,-5.045991E-1,-1.0174193E0,-7.5167936E-1,-1.0901866E0,6.4295214E-1,-7.708286E-2,-3.7972394E-1,-1.003984E0,-3.234412E-1,-1.0910752E0,-8.817144E-1,-2.7561566E-1,-5.837467E-1,-1.1140684E0,7.881278E-1,2.190451E-1,-1.456469E-1,1.3839689E-1,-5.912564E-1,-9.552438E-2,-7.541295E-1,-1.3564509E0,-4.5647115E-1,6.619257E-2,-5.0363916E-1,-1.1290895E0,-7.6049954E-1,-1.0486075E0,-3.4143752E-1,1.9284254E-2,-3.606818E-1,-5.363002E-2,-7.289091E-2,-1.0458294E0,1.0034528E0,5.71933E-1,-1.9095697E-1,4.1222814E-1,1.7897315E-2,-2.5083575E-1,2.018505E-1,-9.3511814E-1,-6.3128734E-1,5.573324E-1,3.1967487E-2,-7.993936E-1,-7.258469E-2,-4.0251914E-1,-7.132308E-2,-5.907047E-3,-3.4289837E-1,-5.118042E-2,1.641211E-2,-1.5668564E-1,1.6376776E-1,-4.9360037E-2,-1.077352E0,-7.110073E-2,-4.381842E-2,-2.4386039E-2,-5.326686E-2,-3.630054E-3,-1.3843937E-3,-2.5878524E-2,-3.5724122E-2,1.7460657E-2,-4.5823622E-2,-5.9872236E-2,4.491951E-3,5.3134944E-2,8.674302E-3,4.4236954E-2,1.0916792E-2,-3.0709853E-2,1.7828932E-2,5.471508E-2,-1.1042413E-2,5.0158086E-3,-7.296265E-3,-3.429933E-2,2.832655E-2,5.0431504E-3,-5.206682E-2,5.211711E-4,-4.0347602E-2,-1.7380828E-2,4.589213E-2,6.560739E-3,-1.6939769E-2,1.4535114E-2,-2.2797225E-2,-4.8978973E-2,2.0684786E-2,-3.5108525E-2,-2.2843845E-2,-9.899378E-4,-1.2651642E-2,-4.0549436E-4,-3.066349E-3,2.7968397E-2,-5.646321E-2,-3.1099258E-2],"categories":[],"categories_nodes":[],"categories_segments":[],"categories_sizes":[],"default_left":[0,0,0,0,0,0,0,0,0,0,0,0,0,0,0,0,0,0,0,0,0,0,0,0,0,0,0,0,0,0,0,0,0,0,0,0,0,0,0,0,0,0,0,0,0,0,0,0,0,0,0,0,0,0,0,0,0,0,0,0,0,0,0,0,0,0,0,0,0,0,0,0,0,0,0,0,0,0,0,0,0,0,0,0,0,0,0,0,0,0,0,0,0,0,0,0,0,0,0,0,0,0,0,0,0,0,0],"id":3,"left_children":[1,3,5,7,9,11,13,15,17,19,21,23,25,27,29,31,33,35,37,39,41,43,45,47,49,51,53,55,57,59,61,63,65,67,-1,69,-1,-1,71,73,75,77,79,81,83,85,87,89,91,93,95,-1,97,-1,-1,99,-1,-1,101,103,-1,105,-1,-1,-1,-1,-1,-1,-1,-1,-1,-1,-1,-1,-1,-1,-1,-1,-1,-1,-1,-1,-1,-1,-1,-1,-1,-1,-1,-1,-1,-1,-1,-1,-1,-1,-1,-1,-1,-1,-1,-1,-1,-1,-1,-1,-1],"loss_changes":[3.7820584E2,4.1236194E2,3.1866364E1,7.7781525E0,2.268049E2,1.3525211E1,1.3806091E1,1.0590355E1,9.340515E-1,6.75224E1,1.0760975E1,1.0764658E1,2.8519402E0,1.4815383E0,5.014099E0,1.9740372E0,1.8292811E0,4.855013E-1,1.3840637E0,3.7552277E1,2.2414652E1,9.50056E0,1.2177594E1,5.0876884E0,7.0250874E0,6.283249E0,1.3052864E0,1.0016446E0,5.1867205E-1,5.6481214E0,2.0143127E0,2.1959229E0,8.207092E-1,1.9750891E0,0E0,2.0076356E0,0E0,0E0,1.0011139E0,2.2042877E1,5.1072174E1,1.5897951E1,6.897545E0,4.2920938E0,1.5238926E1,6.093163E0,1.015192E0,4.7025833E0,4.9404442E-1,6.5257483E0,2.959814E-1,0E0,5.1820817E0,0E0,0E0,6.906564E-1,0E0,0E0,6.952222E-2,7.466846E-1,0E0,4.096344E0,0E0,0E0,0E0,0E0,0E0,0E0,0E0,0E0,0E0,0E0,0E0,0E0,0E0,0E0,0E0,0E0,0E0,0E0,0E0,0E0,0E0,0E0,0E0,0E0,0E0,0E0,0E0,0E0,0E0,0E0,0E0,0E0,0E0,0E0,0E0,0E0,0E0,0E0,0E0,0E0,0E0,0E0,0E0,0E0,0E0],"parents":[2147483647,0,0,1,1,2,2,3,3,4,4,5,5,6,6,7,7,8,8,9,9,10,10,11,11,12,12,13,13,14,14,15,15,16,16,17,17,18,18,19,19,20,20,21,21,22,22,23,23,24,24,25,25,26,26,27,27,28,28,29,29,30,30,31,31,32,32,33,33,35,35,38,38,39,39,40,40,41,41,42,42,43,43,44,44,45,45,46,46,47,47,48,48,49,49,50,50,52,52,55,55,58,58,59,59,61,61],"right_children":[2,4,6,8,10,12,14,16,18,20,22,24,26,28,30,32,34,36,38,40,42,44,46,48,50,52,54,56,58,60,62,64,66,68,-1,70,-1,-1,72,74,76,78,80,82,84,86,88,90,92,94,96,-1,98,-1,-1,100,-1,-1,102,104,-1,106,-1,-1,-1,-1,-1,-1,-1,-1,-1,-1,-1,-1,-1,-1,-1,-1,-1,-1,-1,-1,-1,-1,-1,-1,-1,-1,-1,-1,-1,-1,-1,-1,-1,-1,-1,-1,-1,-1,-1,-1,-1,-1,-1,-1,-1],"split_conditions":[4.1501155E-1,1.0308215E-2,7.9E-1,5.2701503E-1,9.880952E-1,1.3770492E0,4.3705714E-1,5.02994E-1,3E-1,2.0547007E-1,1.0005885E0,1.1052631E0,9.997223E-1,4.05E0,9.813875E-1,9.96E-1,1.542E0,6.5868264E-1,6.36E-1,6.043956E-1,6.680162E-1,9.96E-1,1.0188E1,2.553E0,9.9923134E-1,7.8814256E-1,5E0,3.273E0,4.333758E-1,3.492E0,8.32E0,4.5875812E-1,8.856E0,5.081301E-1,1.9284254E-2,6.331169E-1,-5.363002E-2,-7.289091E-2,9.5057034E-1,3.8650307E-1,6.72E-1,3.1248373E-1,4.35E0,3.9E-1,3.5489863E-1,1.0438596E0,3.849865E-1,3.9E-1,1.2E-1,3.2E-1,4E-1,-7.258469E-2,9.5447314E-1,-7.132308E-2,-5.907047E-3,1.1081795E0,-5.118042E-2,1.641211E-2,8.856E0,2.022E0,-4.9360037E-2,4.974E0,-7.110073E-2,-4.381842E-2,-2.4386039E-2,-5.326686E-2,-3.630054E-3,-1.3843937E-3,-2.5878524E-2,-3.5724122E-2,1.7460657E-2,-4.5823622E-2,-5.9872236E-2,4.491951E-3,5.3134944E-2,8.674302E-3,4.4236954E-2,1.0916792E-2,-3.0709853E-2,1.7828932E-2,5.471508E-2,-1.1042413E-2,5.0158086E-3,-7.296265E-3,-3.429933E-2,2.832655E-2,5.0431504E-3,-5.206682E-2,5.211711E-4,-4.0347602E-2,-1.7380828E-2,4.589213E-2,6.560739E-3,-1.6939769E-2,1.4535114E-2,-2.2797225E-2,-4.8978973E-2,2.0684786E-2,-3.5108525E-2,-2.2843845E-2,-9.899378E-4,-1.2651642E-2,-4.0549436E-4,-3.066349E-3,2.7968397E-2,-5.646321E-2,-3.1099258E-2],"split_indices":[7,7,1,6,6,6,7,6,0,7,6,6,7,0,6,0,0,6,0,6,6,0,0,0,7,7,6,0,7,0,1,6,0,6,0,6,0,0,6,6,6,7,0,1,7,6,7,1,1,1,1,0,7,0,0,6,0,0,0,0,0,0,0,0,0,0,0,0,0,0,0,0,0,0,0,0,0,0,0,0,0,0,0,0,0,0,0,0,0,0,0,0,0,0,0,0,0,0,0,0,0,0,0,0,0,0,0],"split_type":[0,0,0,0,0,0,0,0,0,0,0,0,0,0,0,0,0,0,0,0,0,0,0,0,0,0,0,0,0,0,0,0,0,0,0,0,0,0,0,0,0,0,0,0,0,0,0,0,0,0,0,0,0,0,0,0,0,0,0,0,0,0,0,0,0,0,0,0,0,0,0,0,0,0,0,0,0,0,0,0,0,0,0,0,0,0,0,0,0,0,0,0,0,0,0,0,0,0,0,0,0,0,0,0,0,0,0],"sum_hessian":[2.627E3,2.129E3,4.98E2,3.04E2,1.825E3,2.22E2,2.76E2,1.74E2,1.3E2,1.099E3,7.26E2,1.79E2,4.3E1,2.7E1,2.49E2,1.36E2,3.8E1,7E0,1.23E2,8.18E2,2.81E2,5.51E2,1.75E2,1.02E2,7.7E1,2.7E1,1.6E1,2E1,7E0,1.6E1,2.33E2,8.2E1,5.4E1,3.5E1,3E0,6E0,1E0,1.7E1,1.06E2,4.08E2,4.1E2,9E1,1.91E2,2.16E2,3.35E2,1.66E2,9E0,9.9E1,3E0,6.6E1,1.1E1,8E0,1.9E1,1.5E1,1E0,1.8E1,2E0,3E0,4E0,7E0,9E0,2.02E2,3.1E1,5.6E1,2.6E1,5.3E1,1E0,1.3E1,2.2E1,4E0,2E0,6.1E1,4.5E1,2.5E1,3.83E2,1.81E2,2.29E2,4.6E1,4.4E1,1.78E2,1.3E1,5.5E1,1.61E2,2.71E2,6.4E1,3.5E1,1.31E2,8E0,1E0,6E1,3.9E1,1E0,2E0,2.7E1,3.9E1,5E0,6E0,5E0,1.4E1,1.3E1,5E0,2E0,2E0,5E0,2E0,1.8E2,2.2E1],"tree_param":{"num_deleted":"0","num_feature":"8","num_nodes":"107","size_leaf_vector":"1"}},{"base_weights":[-4.6379487E-3,2.9473728E-1,-3.2248363E-1,-6.8716216E-1,3.6586997E-1,-1.9702463E-1,-5.4820675E-1,-1.0322572E-1,-8.1035894E-1,4.2234802E-1,-8.21404E-2,-1.2747441E-1,-9.4611806E-1,-1.049014E0,-3.025894E-1,-4.3867117E-1,7.895776E-1,-6.6542315E-1,-1.2323543E0,-8.0869097E-1,4.3764573E-1,-8.742879E-1,2.624878E-2,-4.66156E-1,-7.2497174E-2,-6.3423854E-1,-1.1089078E0,-1.2752554E0,-8.2383996E-1,-3.1890012E-2,-7.1173066E-1,-6.2350017E-1,1.3306916E-1,4.4195242E-2,1.0306716E-2,-1.1092818E0,-4.8479146E-1,-6.48259E-2,-3.5393E-3,-6.062479E-2,-1.1018549E0,5.934056E-1,3.0471066E-1,-1.045856E0,-5.5227697E-2,1.4969149E-1,-3.8755095E-1,-9.97542E-1,-3.8600194E-1,-8.214317E-2,7.444936E-2,-1.14877105E-1,-7.524257E-1,-5.608341E-2,-1.40052205E-2,-6.472298E-2,-4.0207577E-1,-2.0329843E-1,-1.1182677E0,-2.3551747E-1,4.4999108E-1,-1.1972841E0,-4.7500396E-1,-4.5395135E-3,-4.194172E-2,-1.4521754E-2,1.8552447E-2,-6.629229E-2,-3.2071788E-2,-2.678673E-2,7.291877E-3,-2.263802E-2,1.7585954E-2,-6.903248E-2,-1.692502E-2,1.8853405E-2,3.436243E-2,4.556108E-3,3.6146667E-2,-1.4499418E-2,-5.7383407E-2,6.661081E-3,-1.55143915E-2,-5.2722003E-3,3.4814235E-2,-8.615102E-3,-3.6205634E-2,-1.1449933E-2,-5.2125204E-2,-2.2103149E-3,-2.837781E-2,3.402946E-2,-5.0768848E-3,8.2665443E-4,-1.9298201E-2,-4.741709E-2,-1.12558E-2,-2.6518155E-2,-3.6375285E-3,4.2499984E-3,-4.9898278E-2,-4.250921E-2,-6.675024E-2,-6.65348E-3,-4.1351255E-2,4.310115E-2,-1.880353E-2,-6.413058E-2,-3.1199262E-2,-1.0006213E-2,-5.5235993E-2],"categories":[],"categories_nodes":[],"categories_segments":[],"categories_sizes":[],"default_left":[0,0,0,0,0,0,0,0,0,0,0,0,0,0,0,0,0,0,0,0,0,0,0,0,0,0,0,0,0,0,0,0,0,0,0,0,0,0,0,0,0,0,0,0,0,0,0,0,0,0,0,0,0,0,0,0,0,0,0,0,0,0,0,0,0,0,0,0,0,0,0,0,0,0,0,0,0,0,0,0,0,0,0,0,0,0,0,0,0,0,0,0,0,0,0,0,0,0,0,0,0,0,0,0,0,0,0,0,0,0,0],"id":4,"left_children":[1,3,5,7,9,11,13,15,17,19,21,23,25,27,29,31,33,35,37,39,41,43,45,47,49,51,53,55,57,59,61,63,65,-1,-1,67,69,-1,-1,71,73,75,77,79,81,83,85,87,89,91,-1,93,95,-1,-1,-1,97,99,101,103,105,107,109,-1,-1,-1,-1,-1,-1,-1,-1,-1,-1,-1,-1,-1,-1,-1,-1,-1,-1,-1,-1,-1,-1,-1,-1,-1,-1,-1,-1,-1,-1,-1,-1,-1,-1,-1,-1,-1,-1,-1,-1,-1,-1,-1,-1,-1,-1,-1,-1],"loss_changes":[2.4797415E2,9.3983574E1,3.568718E1,6.4628105E0,3.1713745E1,4.228849E1,5.5158707E1,5.4376407E0,3.767128E0,2.1295212E1,1.212924E1,1.3856559E1,2.7998695E0,6.4890594E0,3.3646606E1,1.4567332E0,9.2969656E-2,4.1123734E0,1.2497749E0,3.0034847E0,2.2575012E1,2.3311577E0,6.4430833E0,4.044592E0,9.807227E0,1.5094919E0,1.5115356E-1,6.8686676E-1,1.3840908E1,1.816084E1,1.3339447E1,1.0709484E0,5.109074E-1,0E0,0E0,7.706528E-1,1.4595566E0,0E0,0E0,9.6771795E-1,1.660842E0,9.99324E0,5.308403E1,7.445812E-1,2.3360069E-1,1.3600585E1,1.9761262E0,2.1048546E-1,5.683921E0,9.536515E0,0E0,2.2012268E-1,1.9559908E0,0E0,0E0,0E0,8.8160515E-2,6.04146E0,1.8863907E0,7.767778E0,1.904419E1,1.1074791E0,1.4145895E1,0E0,0E0,0E0,0E0,0E0,0E0,0E0,0E0,0E0,0E0,0E0,0E0,0E0,0E0,0E0,0E0,0E0,0E0,0E0,0E0,0E0,0E0,0E0,0E0,0E0,0E0,0E0,0E0,0E0,0E0,0E0,0E0,0E0,0E0,0E0,0E0,0E0,0E0,0E0,0E0,0E0,0E0,0E0,0E0,0E0,0E0,0E0,0E0],"parents":[2147483647,0,0,1,1,2,2,3,3,4,4,5,5,6,6,7,7,8,8,9,9,10,10,11,11,12,12,13,13,14,14,15,15,16,16,17,17,18,18,19,19,20,20,21,21,22,22,23,23,24,24,25,25,26,26,27,27,28,28,29,29,30,30,31,31,32,32,35,35,36,36,39,39,40,40,41,41,42,42,43,43,44,44,45,45,46,46,47,47,48,48,49,49,51,51,52,52,56,56,57,57,58,58,59,59,60,60,61,61,62,62],"right_children":[2,4,6,8,10,12,14,16,18,20,22,24,26,28,30,32,34,36,38,40,42,44,46,48,50,52,54,56,58,60,62,64,66,-1,-1,68,70,-1,-1,72,74,76,78,80,82,84,86,88,90,92,-1,94,96,-1,-1,-1,98,100,102,104,106,108,110,-1,-1,-1,-1,-1,-1,-1,-1,-1,-1,-1,-1,-1,-1,-1,-1,-1,-1,-1,-1,-1,-1,-1,-1,-1,-1,-1,-1,-1,-1,-1,-1,-1,-1,-1,-1,-1,-1,-1,-1,-1,-1,-1,-1,-1,-1,-1,-1],"split_conditions":[9.702073E-1,3.8650307E-1,2.46E0,3.8E-1,2.976E0,1.3333334E0,6.75E0,2.5E-1,1.92E0,1.3E-1,1.195E1,3.2E-1,9.45E-1,4.25E0,6.95E0,3.12E-1,8.68E0,3.43E0,8.856E0,5.2E-1,6.043956E-1,6.95E0,6.45E0,8.5E-1,2.3E0,1.3770492E0,4.955E0,1.0738832E0,4.23E0,1.528E1,1.295E1,8E-2,1.9E-1,4.4195242E-2,1.0306716E-2,1.66E0,8.79E0,-6.48259E-2,-3.5393E-3,4.3E-1,1.2E-1,5E-1,6.8421054E-1,3.273E0,4.842E0,4.974E0,6.787149E-1,1.14E-1,8.35E-1,3.8E-1,7.444936E-2,3E-1,1.7E0,-5.608341E-2,-1.40052205E-2,-6.472298E-2,1.776E0,5.95E0,3.036E0,4.572E0,6.612E0,1.0119047E0,1.289E1,-4.5395135E-3,-4.194172E-2,-1.4521754E-2,1.8552447E-2,-6.629229E-2,-3.2071788E-2,-2.678673E-2,7.291877E-3,-2.263802E-2,1.7585954E-2,-6.903248E-2,-1.692502E-2,1.8853405E-2,3.436243E-2,4.556108E-3,3.6146667E-2,-1.4499418E-2,-5.7383407E-2,6.661081E-3,-1.55143915E-2,-5.2722003E-3,3.4814235E-2,-8.615102E-3,-3.6205634E-2,-1.1449933E-2,-5.2125204E-2,-2.2103149E-3,-2.837781E-2,3.402946E-2,-5.0768848E-3,8.2665443E-4,-1.9298201E-2,-4.741709E-2,-1.12558E-2,-2.6518155E-2,-3.6375285E-3,4.2499984E-3,-4.9898278E-2,-4.250921E-2,-6.675024E-2,-6.65348E-3,-4.1351255E-2,4.310115E-2,-1.880353E-2,-6.413058E-2,-3.1199262E-2,-1.0006213E-2,-5.5235993E-2],"split_indices":[6,6,1,1,0,6,3,1,1,1,3,1,2,3,1,6,3,3,0,6,6,1,0,3,1,6,2,6,2,3,3,1,1,0,0,2,2,0,0,3,1,6,6,0,0,0,6,0,2,2,0,0,3,0,0,0,0,3,0,0,0,6,1,0,0,0,0,0,0,0,0,0,0,0,0,0,0,0,0,0,0,0,0,0,0,0,0,0,0,0,0,0,0,0,0,0,0,0,0,0,0,0,0,0,0,0,0,0,0,0,0],"split_type":[0,0,0,0,0,0,0,0,0,0,0,0,0,0,0,0,0,0,0,0,0,0,0,0,0,0,0,0,0,0,0,0,0,0,0,0,0,0,0,0,0,0,0,0,0,0,0,0,0,0,0,0,0,0,0,0,0,0,0,0,0,0,0,0,0,0,0,0,0,0,0,0,0,0,0,0,0,0,0,0,0,0,0,0,0,0,0,0,0,0,0,0,0,0,0,0,0,0,0,0,0,0,0,0,0,0,0,0,0,0,0],"sum_hessian":[2.604E3,1.341E3,1.263E3,9E1,1.251E3,8.13E2,4.5E2,1.6E1,7.4E1,1.111E3,1.4E2,7.45E2,6.8E1,1.47E2,3.03E2,1.2E1,4E0,5.7E1,1.7E1,1.3E1,1.098E3,1.6E1,1.24E2,1.03E2,6.42E2,2.5E1,4.3E1,7.1E1,7.6E1,1.83E2,1.2E2,9E0,3E0,3E0,1E0,1.5E1,4.2E1,1.6E1,1E0,4E0,9E0,5.04E2,5.94E2,1.3E1,3E0,9.6E1,2.8E1,1.2E1,9.1E1,6.39E2,3E0,5E0,2E1,4.2E1,1E0,6.9E1,2E0,2.5E1,5.1E1,1.29E2,5.4E1,3.8E1,8.2E1,3E0,6E0,1E0,2E0,9E0,6E0,3.9E1,3E0,2E0,2E0,6E0,3E0,1.54E2,3.5E2,3.94E2,2E2,2E0,1.1E1,2E0,1E0,6.6E1,3E1,1.8E1,1E1,1E0,1.1E1,3.2E1,5.9E1,1.5E1,6.24E2,4E0,1E0,1.4E1,6E0,1E0,1E0,1.9E1,6E0,2.5E1,2.6E1,1.11E2,1.8E1,3.6E1,1.8E1,3.2E1,6E0,5.8E1,2.4E1],"tree_param":{"num_deleted":"0","num_feature":"8","num_nodes":"111","size_leaf_vector":"1"}},{"base_weights":[-1.639376E-2,1.648226E-1,-7.037933E-1,-8.9617056E-1,3.4255663E-1,-5.866564E-1,-1.0826504E0,-6.995334E-1,-9.8059326E-1,5.9480166E-1,-4.401267E-2,-4.6231452E-2,-6.81896E-1,-9.109797E-1,-1.2507033E0,-5.6193024E-1,-1.0325134E0,-9.207458E-1,-1.2059417E0,6.773858E-1,3.3228207E-2,-1.22398995E-1,1.9683792E-1,-3.1689903E-1,6.1150223E-1,-4.4060335E-1,-8.6277515E-1,-1.1537262E0,-6.0942173E-1,-1.3862368E0,-9.412682E-1,-8.80407E-1,-4.296705E-1,-6.303895E-2,-6.6113853E-1,-1.0296988E0,-7.8938806E-1,-1.038946E0,-7.20933E-2,9.047225E-1,4.8646754E-1,-5.643107E-1,3.067541E-1,-5.0275224E-1,-7.739441E-2,2.4094434E-1,-8.8353497E-1,-5.9549046E-1,3.6241636E-1,4.0166687E-2,6.197834E-2,-2.2111626E-2,-4.8861596E-1,-9.553486E-1,-4.8516375E-1,-9.3970484E-1,-6.68825E-2,-4.2380366E-1,-5.5665027E-2,-7.077073E-2,-5.477977E-3,-1.1271922E-2,-1.0015793E0,-5.9094317E-2,-9.737212E-3,-8.83942E-3,-2.7729293E-2,4.7814846E-3,-3.6931463E-2,-1.4910418E-2,-5.3508587E-2,-2.6581123E-2,-4.667075E-2,-6.031665E-2,-3.429037E-2,1.883007E-3,4.7927532E-2,9.776785E-3,3.482082E-2,-9.803232E-3,-5.1926296E-2,1.3251372E-2,5.065869E-2,-4.4606335E-2,2.6322085E-2,-3.809914E-4,-1.4450942E-2,8.0738515E-3,3.148379E-2,-5.1792305E-2,7.583022E-4,-6.426408E-2,-2.1320527E-2,4.3721506E-3,3.5723682E-2,1.6744476E-2,-3.256444E-2,-3.9236557E-2,6.59432E-3,-5.1561143E-2,-2.0979712E-2,-4.8597388E-2,4.2927828E-2,-2.7089815E-3,-3.880329E-2,-5.289611E-2,4.1417046E-3,-2.9111674E-2,2.7675569E-2,-5.6619793E-2,-2.9843166E-2],"categories":[],"categories_nodes":[],"categories_segments":[],"categories_sizes":[],"default_left":[0,0,0,0,0,0,0,0,0,0,0,0,0,0,0,0,0,0,0,0,0,0,0,0,0,0,0,0,0,0,0,0,0,0,0,0,0,0,0,0,0,0,0,0,0,0,0,0,0,0,0,0,0,0,0,0,0,0,0,0,0,0,0,0,0,0,0,0,0,0,0,0,0,0,0,0,0,0,0,0,0,0,0,0,0,0,0,0,0,0,0,0,0,0,0,0,0,0,0,0,0,0,0,0,0,0,0,0,0,0,0],"id":5,"left_children":[1,3,5,7,9,11,13,15,17,19,21,23,25,27,29,31,33,35,37,39,41,43,45,47,49,51,53,55,57,59,61,63,65,-1,67,69,71,73,-1,75,77,79,81,83,85,87,89,91,93,-1,95,97,99,101,103,105,-1,107,-1,-1,-1,-1,109,-1,-1,-1,-1,-1,-1,-1,-1,-1,-1,-1,-1,-1,-1,-1,-1,-1,-1,-1,-1,-1,-1,-1,-1,-1,-1,-1,-1,-1,-1,-1,-1,-1,-1,-1,-1,-1,-1,-1,-1,-1,-1,-1,-1,-1,-1,-1,-1],"loss_changes":[3.2660883E2,3.9159927E2,2.3639679E1,4.261032E0,1.7339929E2,2.1585815E1,2.5534058E0,3.6809769E0,1.6678314E0,4.987921E1,1.3296307E1,1.1587523E1,1.520105E1,4.201439E0,1.2953873E0,2.4859886E0,1.3705254E0,1.5772552E0,7.791519E-2,4.0271637E1,2.2891596E1,9.050557E0,8.456573E0,8.921381E0,1.953114E0,3.1035957E0,6.632736E0,1.6009903E-1,2.5211077E0,1.3722076E0,7.23999E-1,3.6973858E0,1.4813986E0,0E0,7.743449E-1,2.286148E0,2.4737892E0,7.686806E-1,0E0,1.9892975E1,3.11372E1,7.48001E0,2.5612288E0,2.2911192E1,7.026417E0,5.057193E0,9.7388554E-1,3.300727E0,1.2928135E0,0E0,1.386061E0,2.1000075E0,4.7730865E0,5.7121735E0,5.223667E0,2.505268E0,0E0,4.1931696E0,0E0,0E0,0E0,0E0,3.8298607E-1,0E0,0E0,0E0,0E0,0E0,0E0,0E0,0E0,0E0,0E0,0E0,0E0,0E0,0E0,0E0,0E0,0E0,0E0,0E0,0E0,0E0,0E0,0E0,0E0,0E0,0E0,0E0,0E0,0E0,0E0,0E0,0E0,0E0,0E0,0E0,0E0,0E0,0E0,0E0,0E0,0E0,0E0,0E0,0E0,0E0,0E0,0E0,0E0],"parents":[2147483647,0,0,1,1,2,2,3,3,4,4,5,5,6,6,7,7,8,8,9,9,10,10,11,11,12,12,13,13,14,14,15,15,16,16,17,17,18,18,19,19,20,20,21,21,22,22,23,23,24,24,25,25,26,26,27,27,28,28,29,29,30,30,31,31,32,32,34,34,35,35,36,36,37,37,39,39,40,40,41,41,42,42,43,43,44,44,45,45,46,46,47,47,48,48,50,50,51,51,52,52,53,53,54,54,55,55,57,57,62,62],"right_children":[2,4,6,8,10,12,14,16,18,20,22,24,26,28,30,32,34,36,38,40,42,44,46,48,50,52,54,56,58,60,62,64,66,-1,68,70,72,74,-1,76,78,80,82,84,86,88,90,92,94,-1,96,98,100,102,104,106,-1,108,-1,-1,-1,-1,110,-1,-1,-1,-1,-1,-1,-1,-1,-1,-1,-1,-1,-1,-1,-1,-1,-1,-1,-1,-1,-1,-1,-1,-1,-1,-1,-1,-1,-1,-1,-1,-1,-1,-1,-1,-1,-1,-1,-1,-1,-1,-1,-1,-1,-1,-1,-1,-1],"split_conditions":[4.0723062E-1,1.0308215E-2,9.9923134E-1,2.59E0,9.880952E-1,5.04E-1,9.998959E-1,6.5868264E-1,9.5057034E-1,3.0062175E-1,1.0013351E0,1.1651918E0,4.687207E-1,9.997675E-1,5.605E0,4.5875812E-1,7.56E-1,4.9624062E-1,8.5E0,6.043956E-1,6.68239E-1,9.9882215E-1,1.0188E1,8.4E-1,1.3261455E0,1.25E0,1.0203252E0,9.78E-1,2.553E0,5E0,4.842E0,2.55E0,8.35E-1,-6.303895E-2,8.095238E-1,1.64E0,5.167173E-1,9.8507464E-1,-7.20933E-2,3.8650307E-1,6.72E-1,3.6766285E-1,9.813875E-1,8.25E0,1.02E1,7.57E0,3.7768912E-1,1.0639659E0,8.7E-1,4.0166687E-2,9.6546173E-1,1.67E0,3.36E0,1.313E1,1.3261455E0,1.155E0,-6.68825E-2,2.094E0,-5.5665027E-2,-7.077073E-2,-5.477977E-3,-1.1271922E-2,1.1651918E0,-5.9094317E-2,-9.737212E-3,-8.83942E-3,-2.7729293E-2,4.7814846E-3,-3.6931463E-2,-1.4910418E-2,-5.3508587E-2,-2.6581123E-2,-4.667075E-2,-6.031665E-2,-3.429037E-2,1.883007E-3,4.7927532E-2,9.776785E-3,3.482082E-2,-9.803232E-3,-5.1926296E-2,1.3251372E-2,5.065869E-2,-4.4606335E-2,2.6322085E-2,-3.809914E-4,-1.4450942E-2,8.0738515E-3,3.148379E-2,-5.1792305E-2,7.583022E-4,-6.426408E-2,-2.1320527E-2,4.3721506E-3,3.5723682E-2,1.6744476E-2,-3.256444E-2,-3.9236557E-2,6.59432E-3,-5.1561143E-2,-2.0979712E-2,-4.8597388E-2,4.2927828E-2,-2.7089815E-3,-3.880329E-2,-5.289611E-2,4.1417046E-3,-2.9111674E-2,2.7675569E-2,-5.6619793E-2,-2.9843166E-2],"split_indices":[7,7,7,3,6,0,7,6,6,7,6,6,7,7,2,6,0,6,3,6,6,6,0,3,6,2,6,0,0,6,0,3,2,0,6,2,6,6,0,6,6,7,6,3,3,2,7,6,3,0,7,3,3,3,6,2,0,0,0,0,0,0,6,0,0,0,0,0,0,0,0,0,0,0,0,0,0,0,0,0,0,0,0,0,0,0,0,0,0,0,0,0,0,0,0,0,0,0,0,0,0,0,0,0,0,0,0,0,0,0,0],"split_type":[0,0,0,0,0,0,0,0,0,0,0,0,0,0,0,0,0,0,0,0,0,0,0,0,0,0,0,0,0,0,0,0,0,0,0,0,0,0,0,0,0,0,0,0,0,0,0,0,0,0,0,0,0,0,0,0,0,0,0,0,0,0,0,0,0,0,0,0,0,0,0,0,0,0,0,0,0,0,0,0,0,0,0,0,0,0,0,0,0,0,0,0,0,0,0,0,0,0,0,0,0,0,0,0,0,0,0,0,0,0,0],"sum_hessian":[2.62E3,2.074E3,5.46E2,2.97E2,1.777E3,4.19E2,1.27E2,9.2E1,2.05E2,1.075E3,7.02E2,6.3E1,3.56E2,6.6E1,6.1E1,6.7E1,2.5E1,1.66E2,3.9E1,9.37E2,1.38E2,5.3E2,1.72E2,4.5E1,1.8E1,1.54E2,2.02E2,3.5E1,3.1E1,4E1,2.1E1,1.8E1,4.9E1,1.4E1,1.1E1,8.7E1,7.9E1,2.6E1,1.3E1,4.26E2,5.11E2,4.3E1,9.5E1,5.5E1,4.75E2,1.66E2,6E0,3.2E1,1.3E1,1.3E1,5E0,1.6E1,1.38E2,1.61E2,4.1E1,1.9E1,1.6E1,2.4E1,7E0,3.9E1,1E0,2E0,1.9E1,1.2E1,6E0,1.7E1,3.2E1,1E0,1E1,5E0,8.2E1,3E1,4.9E1,1.6E1,1E1,2.5E1,4.01E2,2.15E2,2.96E2,2.5E1,1.8E1,9.1E1,4E0,4E1,1.5E1,3.58E2,1.17E2,1.39E2,2.7E1,5E0,1E0,5E0,2.7E1,8E0,5E0,4E0,1E0,2E0,1.4E1,1.4E1,1.24E2,1.6E2,1E0,1.7E1,2.4E1,1.7E1,2E0,2.1E1,3E0,1.3E1,6E0],"tree_param":{"num_deleted":"0","num_feature":"8","num_nodes":"111","size_leaf_vector":"1"}},{"base_weights":[3.8749182E-3,1.6131507E-1,-6.9233936E-1,-8.539353E-1,3.349978E-1,-4.3451986E-1,-9.079936E-1,-4.6502063E-1,-8.907713E-1,4.15944E-1,-1.108245E-1,-3.5653022E-1,-9.5935804E-1,-2.2980595E-1,-9.788618E-1,-7.056052E-1,-1.9343467E-1,-7.9577434E-1,-9.5388573E-1,6.53812E-1,3.1351972E-1,-1.736738E-2,-6.711331E-1,-4.4738296E-1,1.7581753E-1,-7.725658E-1,-5.7201695E-2,-3.8007832E-1,4.8637677E-2,-8.430559E-1,-1.161496E0,-2.658609E-2,-4.7351383E-2,-3.8120437E-2,-9.83359E-2,-1.1422881E0,-7.0085657E-1,-5.599804E-2,-8.8617104E-1,1.7791117E-2,7.3095584E-1,3.996653E-1,1.3267837E-1,4.0677644E-2,-6.977186E-1,-9.32449E-1,-3.3323398E-1,-5.365346E-2,-4.0468076E-1,-5.116789E-1,3.0628413E-1,-4.8665706E-2,-9.610705E-2,-2.37782E-2,-6.271106E-1,1.5596397E-2,-5.6175888E-2,-5.4002774E-1,-1.0072287E0,-7.534422E-2,-1.0909439E0,1.0159996E-2,-2.1445014E-2,-3.5725795E-2,-7.552587E-2,-4.8557553E-2,-3.3086624E-2,-5.7889386E-3,-4.6602886E-2,1.0748657E-2,-2.1349022E-2,4.1940276E-2,1.860374E-2,1.0935571E-2,2.413163E-2,-5.8309487E-3,1.7972711E-2,2.4599556E-4,2.6809512E-2,-4.0266056E-2,3.0978156E-2,-5.539105E-2,-3.056102E-2,-7.593648E-3,-4.876848E-2,-2.0945808E-2,4.5401134E-2,-2.8734077E-2,-6.491709E-3,3.417733E-2,-1.948057E-3,3.978256E-2,-2.589797E-2,-1.9563729E-2,1.3748727E-2,-1.0834438E-2,-3.8602505E-2,-9.128127E-3,5.7925703E-3,-1.4102304E-2,-4.475711E-2,-5.1059283E-2,5.5244802E-3,-3.3584602E-2,-5.7533037E-2],"categories":[],"categories_nodes":[],"categories_segments":[],"categories_sizes":[],"default_left":[0,0,0,0,0,0,0,0,0,0,0,0,0,0,0,0,0,0,0,0,0,0,0,0,0,0,0,0,0,0,0,0,0,0,0,0,0,0,0,0,0,0,0,0,0,0,0,0,0,0,0,0,0,0,0,0,0,0,0,0,0,0,0,0,0,0,0,0,0,0,0,0,0,0,0,0,0,0,0,0,0,0,0,0,0,0,0,0,0,0,0,0,0,0,0,0,0,0,0,0,0,0,0,0,0],"id":6,"left_children":[1,3,5,7,9,11,13,15,17,19,21,23,25,27,29,31,33,35,37,39,41,43,45,47,49,51,-1,53,55,57,59,-1,-1,-1,61,63,65,-1,67,69,71,73,75,77,79,81,83,-1,85,87,89,-1,91,93,95,-1,97,99,101,-1,103,-1,-1,-1,-1,-1,-1,-1,-1,-1,-1,-1,-1,-1,-1,-1,-1,-1,-1,-1,-1,-1,-1,-1,-1,-1,-1,-1,-1,-1,-1,-1,-1,-1,-1,-1,-1,-1,-1,-1,-1,-1,-1,-1,-1],"loss_changes":[2.8587033E2,3.7534314E2,2.6348999E1,4.0411835E0,6.561731E1,8.703918E0,1.2319199E1,1.7583542E0,9.376831E-1,3.726599E1,1.4650496E1,9.461517E0,8.2048416E-2,1.1063881E0,4.8742676E0,1.2613535E-1,7.366589E-1,3.1133652E0,8.630829E-1,2.2655075E1,1.6725212E1,9.545713E0,3.2212143E0,4.000965E0,2.757883E0,2.215023E0,0E0,1.4813881E0,2.9348674E-1,6.3711777E0,7.4412537E-1,0E0,0E0,0E0,1.4826305E0,2.701151E0,3.725586E-1,0E0,4.2048798E0,4.564538E0,1.563443E1,1.0839104E1,1.97725E1,3.9485667E0,3.1920595E0,5.622349E-1,2.0645766E0,0E0,3.3142262E0,4.5672774E-2,3.2828338E0,0E0,2.2930667E0,9.8591495E-1,4.275689E-1,0E0,1.9508575E-1,4.4197903E0,1.5012207E0,0E0,1.3552017E0,0E0,0E0,0E0,0E0,0E0,0E0,0E0,0E0,0E0,0E0,0E0,0E0,0E0,0E0,0E0,0E0,0E0,0E0,0E0,0E0,0E0,0E0,0E0,0E0,0E0,0E0,0E0,0E0,0E0,0E0,0E0,0E0,0E0,0E0,0E0,0E0,0E0,0E0,0E0,0E0,0E0,0E0,0E0,0E0],"parents":[2147483647,0,0,1,1,2,2,3,3,4,4,5,5,6,6,7,7,8,8,9,9,10,10,11,11,12,12,13,13,14,14,15,15,16,16,17,17,18,18,19,19,20,20,21,21,22,22,23,23,24,24,25,25,27,27,28,28,29,29,30,30,34,34,35,35,36,36,38,38,39,39,40,40,41,41,42,42,43,43,44,44,45,45,46,46,48,48,49,49,50,50,52,52,53,53,54,54,56,56,57,57,58,58,60,60],"right_children":[2,4,6,8,10,12,14,16,18,20,22,24,26,28,30,32,34,36,38,40,42,44,46,48,50,52,-1,54,56,58,60,-1,-1,-1,62,64,66,-1,68,70,72,74,76,78,80,82,84,-1,86,88,90,-1,92,94,96,-1,98,100,102,-1,104,-1,-1,-1,-1,-1,-1,-1,-1,-1,-1,-1,-1,-1,-1,-1,-1,-1,-1,-1,-1,-1,-1,-1,-1,-1,-1,-1,-1,-1,-1,-1,-1,-1,-1,-1,-1,-1,-1,-1,-1,-1,-1,-1,-1],"split_conditions":[4.1501155E-1,1.0308215E-2,8E-1,8.5E-1,3.5489863E-1,9.9923134E-1,4.3705714E-1,8.2E-1,9.96E-1,1.0646185E-1,2E0,9.987516E-1,9.998959E-1,4.05E0,9.768504E-1,6.5E-1,1.74E-1,1.45E0,4.14E0,2.6476039E-2,1.974E0,5.685E0,3.849865E-1,1E-1,3.4E-1,8.4E-1,-5.7201695E-2,3.94E0,4.2793825E-1,2.3E0,9.9923134E-1,-2.658609E-2,-4.7351383E-2,-3.8120437E-2,8.35E-1,4.47E-1,2.34E-1,-5.599804E-2,4.23E0,1.18E0,2.478E0,1.275E0,7.455E0,4.94E0,4.17E0,4.842E0,4.0322176E-1,-5.365346E-2,6.65E0,1.8E-1,3.8E-1,-4.8665706E-2,4E-1,2.268E0,2.544E0,1.5596397E-2,4E0,9.46898E-1,9.7326845E-1,-7.534422E-2,1.63E0,1.0159996E-2,-2.1445014E-2,-3.5725795E-2,-7.552587E-2,-4.8557553E-2,-3.3086624E-2,-5.7889386E-3,-4.6602886E-2,1.0748657E-2,-2.1349022E-2,4.1940276E-2,1.860374E-2,1.0935571E-2,2.413163E-2,-5.8309487E-3,1.7972711E-2,2.4599556E-4,2.6809512E-2,-4.0266056E-2,3.0978156E-2,-5.539105E-2,-3.056102E-2,-7.593648E-3,-4.876848E-2,-2.0945808E-2,4.5401134E-2,-2.8734077E-2,-6.491709E-3,3.417733E-2,-1.948057E-3,3.978256E-2,-2.589797E-2,-1.9563729E-2,1.3748727E-2,-1.0834438E-2,-3.8602505E-2,-9.128127E-3,5.7925703E-3,-1.4102304E-2,-4.475711E-2,-5.1059283E-2,5.5244802E-3,-3.3584602E-2,-5.7533037E-2],"split_indices":[7,7,1,2,7,7,7,2,0,7,1,7,7,0,7,2,0,2,2,7,0,2,7,1,1,2,0,2,7,1,7,0,0,0,2,0,0,0,2,1,0,2,2,2,0,0,7,0,2,0,2,0,1,0,0,0,1,7,7,0,2,0,0,0,0,0,0,0,0,0,0,0,0,0,0,0,0,0,0,0,0,0,0,0,0,0,0,0,0,0,0,0,0,0,0,0,0,0,0,0,0,0,0,0,0],"split_type":[0,0,0,0,0,0,0,0,0,0,0,0,0,0,0,0,0,0,0,0,0,0,0,0,0,0,0,0,0,0,0,0,0,0,0,0,0,0,0,0,0,0,0,0,0,0,0,0,0,0,0,0,0,0,0,0,0,0,0,0,0,0,0,0,0,0,0,0,0,0,0,0,0,0,0,0,0,0,0,0,0,0,0,0,0,0,0,0,0,0,0,0,0,0,0,0,0,0,0,0,0,0,0,0,0],"sum_hessian":[2.606E3,2.126E3,4.8E2,3.1E2,1.816E3,2.2E2,2.6E2,2.8E1,2.82E2,1.537E3,2.79E2,1.93E2,2.7E1,2.5E1,2.35E2,1.4E1,1.4E1,1.18E2,1.64E2,4.61E2,1.076E3,2.4E2,3.9E1,1.65E2,2.8E1,1.6E1,1.1E1,1.6E1,9E0,1.38E2,9.7E1,1E1,4E0,1E0,1.3E1,2.3E1,9.5E1,4.3E1,1.21E2,5E1,4.11E2,7.28E2,3.48E2,2.22E2,1.8E1,2.1E1,1.8E1,9E0,1.56E2,4E0,2.4E1,1.2E1,4E0,7E0,9E0,2E0,7E0,5E1,8.8E1,1.3E1,8.4E1,7E0,6E0,1.2E1,1.1E1,9E0,8.6E1,7E0,1.14E2,3.5E1,1.5E1,3.15E2,9.6E1,2.3E2,4.98E2,1.66E2,1.82E2,2.08E2,1.4E1,1.7E1,1E0,1.2E1,9E0,1.5E1,3E0,1.55E2,1E0,3E0,1E0,1.1E1,1.3E1,1E0,3E0,3E0,4E0,3E0,6E0,4E0,3E0,3E1,2E1,8.7E1,1E0,1.2E1,7.2E1],"tree_param":{"num_deleted":"0","num_feature":"8","num_nodes":"105","size_leaf_vector":"1"}},{"base_weights":[-1.0659756E-2,1.383936E-1,-6.3203603E-1,-8.0305964E-1,2.9868612E-1,-3.7740615E-1,-8.405933E-1,-4.9043396E-1,-8.7954694E-1,5.468654E-1,-7.0592254E-2,-2.9734993E-1,-9.0387124E-1,-3.232776E-1,-8.880141E-1,-8.54299E-1,-3.1389457E-1,-7.713147E-1,-9.841184E-1,8.9296895E-1,4.1829643E-1,-1.430755E-1,1.3616577E-1,-3.93623E-1,2.4640234E-1,5.5172206E-3,-9.426492E-1,-7.555548E-1,-3.28995E-2,-4.130497E-1,-9.180826E-1,-9.355504E-1,-8.2024254E-2,-4.6485946E-1,-7.000862E-2,-8.8438886E-1,-3.626049E-1,-1.2842001E0,-9.2330325E-1,-2.4709225E-2,9.639099E-1,4.9171168E-1,1.3589355E-1,1.778651E-2,-2.397405E-1,5.546001E-1,1.3673592E-2,-6.32927E-2,-3.5447097E-1,-1.7128685E-1,3.516783E-2,-6.967505E-1,-1.156344E0,-7.915767E-2,-9.147594E-1,8.048218E-2,-2.7552376E-2,2.1024376E-1,-8.7037945E-1,-8.361445E-1,-1.0314264E0,-7.7466606E-3,-4.8617765E-2,2.9736876E-3,-9.125507E-3,-5.432191E-3,-4.505377E-2,-3.7499752E-2,8.892215E-3,-2.1734197E-2,-4.7708247E-2,-2.8576255E-3,-2.6018066E-2,-2.7227405E-2,-6.979137E-2,-4.0984433E-2,-5.7209987E-2,1.322071E-2,-3.4101646E-2,6.169687E-2,3.680307E-2,2.0364936E-2,3.6626805E-2,-9.7584445E-3,1.347057E-2,-2.4030505E-2,5.665285E-3,-5.5066813E-2,-7.765729E-3,1.6375897E-2,7.535724E-2,9.053554E-3,-1.2095514E-2,-1.4529799E-2,-3.9083734E-2,-3.1336796E-2,8.5308915E-4,-2.6841337E-2,-5.2115764E-2,-6.1662998E-2,-3.9109825E-3,-4.884434E-3,-1.0523916E-3,-5.0373193E-2,-6.6457153E-3,1.245065E-2,-6.181097E-3,-7.237792E-4,2.948006E-2,-1.1538446E-2,-4.5790315E-2,-3.632453E-3,-4.4937227E-2,-6.878554E-2,-4.5205396E-2],"categories":[],"categories_nodes":[],"categories_segments":[],"categories_sizes":[],"default_left":[0,0,0,0,0,0,0,0,0,0,0,0,0,0,0,0,0,0,0,0,0,0,0,0,0,0,0,0,0,0,0,0,0,0,0,0,0,0,0,0,0,0,0,0,0,0,0,0,0,0,0,0,0,0,0,0,0,0,0,0,0,0,0,0,0,0,0,0,0,0,0,0,0,0,0,0,0,0,0,0,0,0,0,0,0,0,0,0,0,0,0,0,0,0,0,0,0,0,0,0,0,0,0,0,0,0,0,0,0,0,0,0,0,0,0],"id":7,"left_children":[1,3,5,7,9,11,13,15,17,19,21,23,25,27,29,31,33,35,37,39,41,43,45,47,49,-1,51,53,55,57,59,61,63,65,67,69,71,73,75,77,79,81,83,85,87,89,91,-1,93,95,-1,97,99,101,103,105,-1,107,109,111,113,-1,-1,-1,-1,-1,-1,-1,-1,-1,-1,-1,-1,-1,-1,-1,-1,-1,-1,-1,-1,-1,-1,-1,-1,-1,-1,-1,-1,-1,-1,-1,-1,-1,-1,-1,-1,-1,-1,-1,-1,-1,-1,-1,-1,-1,-1,-1,-1,-1,-1,-1,-1,-1,-1],"loss_changes":[2.4367339E2,3.204665E2,2.6713165E1,6.9574127E0,1.6628671E2,9.467148E0,6.5572205E0,3.7787418E0,2.0364838E0,4.7907013E1,1.0959621E1,1.0671427E1,1.2838917E0,3.1132386E0,3.2625732E0,1.1782303E0,1.5874572E0,5.50235E0,1.040741E0,1.9098404E1,1.6374191E1,8.416667E0,9.730854E0,5.425028E0,6.037286E0,0E0,7.1818733E-1,1.0044451E0,9.843253E-1,5.0288534E0,1.3572083E0,3.6650085E-1,5.351022E-2,4.097551E0,3.1670413E0,2.6603394E0,1.3676853E0,7.2607803E-1,1.4653625E0,4.3613877E0,1.582666E1,1.2488388E1,7.346032E0,9.76617E0,2.441541E1,8.807537E0,6.3758492E0,0E0,4.302595E0,1.4690077E0,0E0,3.2468128E-1,1.0644798E0,1.174368E-3,4.4593668E-1,5.123532E-1,0E0,6.9052655E-1,7.921553E-2,6.8171616E0,2.9642563E0,0E0,0E0,0E0,0E0,0E0,0E0,0E0,0E0,0E0,0E0,0E0,0E0,0E0,0E0,0E0,0E0,0E0,0E0,0E0,0E0,0E0,0E0,0E0,0E0,0E0,0E0,0E0,0E0,0E0,0E0,0E0,0E0,0E0,0E0,0E0,0E0,0E0,0E0,0E0,0E0,0E0,0E0,0E0,0E0,0E0,0E0,0E0,0E0,0E0,0E0,0E0,0E0,0E0,0E0],"parents":[2147483647,0,0,1,1,2,2,3,3,4,4,5,5,6,6,7,7,8,8,9,9,10,10,11,11,12,12,13,13,14,14,15,15,16,16,17,17,18,18,19,19,20,20,21,21,22,22,23,23,24,24,26,26,27,27,28,28,29,29,30,30,31,31,32,32,33,33,34,34,35,35,36,36,37,37,38,38,39,39,40,40,41,41,42,42,43,43,44,44,45,45,46,46,48,48,49,49,51,51,52,52,53,53,54,54,55,55,57,57,58,58,59,59,60,60],"right_children":[2,4,6,8,10,12,14,16,18,20,22,24,26,28,30,32,34,36,38,40,42,44,46,48,50,-1,52,54,56,58,60,62,64,66,68,70,72,74,76,78,80,82,84,86,88,90,92,-1,94,96,-1,98,100,102,104,106,-1,108,110,112,114,-1,-1,-1,-1,-1,-1,-1,-1,-1,-1,-1,-1,-1,-1,-1,-1,-1,-1,-1,-1,-1,-1,-1,-1,-1,-1,-1,-1,-1,-1,-1,-1,-1,-1,-1,-1,-1,-1,-1,-1,-1,-1,-1,-1,-1,-1,-1,-1,-1,-1,-1,-1,-1,-1],"split_conditions":[4.1365045E-1,1.0308215E-2,8E-1,4.74E-1,9.880952E-1,9.9923134E-1,4.3705714E-1,2.34E-1,5.2701503E-1,1.01005E-1,1.0005885E0,9.987516E-1,1.0438596E0,1.0005885E0,9.813875E-1,5.5737704E-1,2.08E0,5.02994E-1,6.36E-1,3.6363637E-1,2.8167692E-1,9.96E-1,1.0438596E0,6.6591424E-1,1.1651918E0,5.5172206E-3,1.4880953E0,1.776E0,1.2917933E0,3.492E0,9.768504E-1,3.6E-2,1.26E-1,1.05E0,1.8082191E-1,3.43E0,5.081301E-1,1.66E0,9.813875E-1,1.275E1,5.081301E-1,6.7783093E-1,6.680162E-1,3.4E-1,3.95E0,3.654E0,2.66E0,-6.32927E-2,9.768504E-1,1.8E-1,3.516783E-2,7.56E-1,5E0,6.7729086E-1,4.2793825E-1,4.2793825E-1,-2.7552376E-2,2.022E0,4.5730314E-1,1.494E0,1.027027E0,-7.7466606E-3,-4.8617765E-2,2.9736876E-3,-9.125507E-3,-5.432191E-3,-4.505377E-2,-3.7499752E-2,8.892215E-3,-2.1734197E-2,-4.7708247E-2,-2.8576255E-3,-2.6018066E-2,-2.7227405E-2,-6.979137E-2,-4.0984433E-2,-5.7209987E-2,1.322071E-2,-3.4101646E-2,6.169687E-2,3.680307E-2,2.0364936E-2,3.6626805E-2,-9.7584445E-3,1.347057E-2,-2.4030505E-2,5.665285E-3,-5.5066813E-2,-7.765729E-3,1.6375897E-2,7.535724E-2,9.053554E-3,-1.2095514E-2,-1.4529799E-2,-3.9083734E-2,-3.1336796E-2,8.5308915E-4,-2.6841337E-2,-5.2115764E-2,-6.1662998E-2,-3.9109825E-3,-4.884434E-3,-1.0523916E-3,-5.0373193E-2,-6.6457153E-3,1.245065E-2,-6.181097E-3,-7.237792E-4,2.948006E-2,-1.1538446E-2,-4.5790315E-2,-3.632453E-3,-4.4937227E-2,-6.878554E-2,-4.5205396E-2],"split_indices":[7,7,1,0,6,7,7,0,6,7,6,7,6,6,6,6,3,6,0,6,7,0,6,6,6,0,6,0,6,0,7,0,0,3,6,3,6,3,6,3,6,6,6,1,3,0,1,0,7,0,0,0,6,6,7,7,0,0,7,0,6,0,0,0,0,0,0,0,0,0,0,0,0,0,0,0,0,0,0,0,0,0,0,0,0,0,0,0,0,0,0,0,0,0,0,0,0,0,0,0,0,0,0,0,0,0,0,0,0,0,0,0,0,0,0],"split_type":[0,0,0,0,0,0,0,0,0,0,0,0,0,0,0,0,0,0,0,0,0,0,0,0,0,0,0,0,0,0,0,0,0,0,0,0,0,0,0,0,0,0,0,0,0,0,0,0,0,0,0,0,0,0,0,0,0,0,0,0,0,0,0,0,0,0,0,0,0,0,0,0,0,0,0,0,0,0,0,0,0,0,0,0,0,0,0,0,0,0,0,0,0,0,0,0,0,0,0,0,0,0,0,0,0,0,0,0,0,0,0,0,0,0,0],"sum_hessian":[2.629E3,2.121E3,5.08E2,3.08E2,1.813E3,2.3E2,2.78E2,6.2E1,2.46E2,1.084E3,7.29E2,2.01E2,2.9E1,2.4E1,2.54E2,1.9E1,4.3E1,1.25E2,1.21E2,2.92E2,7.92E2,5.4E2,1.89E2,1.71E2,3E1,1E0,2.8E1,9E0,1.5E1,1.6E1,2.38E2,1.7E1,2E0,2.6E1,1.7E1,9.7E1,2.8E1,1.7E1,1.04E2,2.1E1,2.71E2,6.28E2,1.64E2,2.03E2,3.37E2,4.2E1,1.47E2,6E0,1.65E2,1.6E1,1.4E1,1.5E1,1.3E1,2E0,7E0,1.3E1,2E0,7E0,9E0,1.43E2,9.5E1,1E0,1.6E1,1E0,1E0,1.5E1,1.1E1,4E0,1.3E1,1.4E1,8.3E1,1E1,1.8E1,3E0,1.4E1,7.4E1,3E1,1.5E1,6E0,1.22E2,1.49E2,4.67E2,1.61E2,4.7E1,1.17E2,3.2E1,1.71E2,2.9E1,3.08E2,3.5E1,7E0,8.9E1,5.8E1,1.45E2,2E1,4E0,1.2E1,1.2E1,3E0,1.2E1,1E0,1E0,1E0,6E0,1E0,7E0,6E0,5E0,2E0,1E0,8E0,1.1E1,1.32E2,2.3E1,7.2E1],"tree_param":{"num_deleted":"0","num_feature":"8","num_nodes":"115","size_leaf_vector":"1"}},{"base_weights":[-1.290306E-2,1.306404E-1,-6.228646E-1,-7.4152315E-1,2.856513E-1,-4.3341488E-1,-9.1902685E-1,-6.340704E-1,-8.7610894E-1,5.1885706E-1,-6.618481E-2,-3.5699674E-1,-1.1220143E0,-8.497477E-3,-9.532484E-1,-7.2485423E-1,-2.0495322E-1,-9.1524637E-1,-5.4140246E-1,8.657886E-1,3.8721088E-1,1.54984165E-2,-2.2134648E-1,-9.060022E-1,-3.082316E-1,-1.1554449E0,-3.8132071E-3,1.4661496E-2,-1.5794492E-1,2.2619773E-2,-9.632918E-1,-6.040137E-1,-8.940342E-1,-3.0125844E-1,2.842871E-2,-9.3869585E-1,-3.925562E-1,1.781795E-2,-6.1978495E-1,2.757085E-2,9.264291E-1,4.7294885E-1,-7.132921E-3,4.1881695E-2,-4.3665764E-1,-9.5346886E-1,-9.191579E-2,1.6017199E-3,-9.521961E-1,3.1934136E-1,-3.544E-1,-5.978931E-2,-4.0722418E-1,-1.9732738E-2,5.9073687E-2,-9.29076E-1,-1.2666295E0,-4.9092364E-2,-2.5767783E-2,-4.5597855E-2,-1.2475678E-2,-2.7620283E-4,-2.6354168E-2,-4.4452965E-2,-6.9045044E-2,-2.3517137E-2,1.8540741E-3,-6.272343E-3,-3.6210664E-2,1.0971861E-2,-4.2136025E-2,6.07432E-2,3.5486046E-2,2.0857874E-2,5.3739816E-2,-2.2341121E-2,1.1595315E-2,3.781044E-4,1.5954291E-2,-3.6993023E-2,2.4600795E-2,-5.456611E-2,-3.075113E-2,-1.34436255E-2,4.464345E-3,-7.2011255E-2,-3.5483655E-2,4.522159E-2,1.2367469E-3,-1.5882634E-2,-5.1000178E-2,-2.2634745E-3,-2.827834E-2,1.0633516E-2,-3.1507653E-3,-4.9098022E-2,-3.3516288E-2,-6.7378126E-2,-2.3336586E-2],"categories":[],"categories_nodes":[],"categories_segments":[],"categories_sizes":[],"default_left":[0,0,0,0,0,0,0,0,0,0,0,0,0,0,0,0,0,0,0,0,0,0,0,0,0,0,0,0,0,0,0,0,0,0,0,0,0,0,0,0,0,0,0,0,0,0,0,0,0,0,0,0,0,0,0,0,0,0,0,0,0,0,0,0,0,0,0,0,0,0,0,0,0,0,0,0,0,0,0,0,0,0,0,0,0,0,0,0,0,0,0,0,0,0,0,0,0,0,0],"id":8,"left_children":[1,3,5,7,9,11,13,15,17,19,21,23,25,27,29,31,33,35,37,39,41,43,45,47,49,51,-1,-1,53,-1,55,57,59,61,-1,63,65,-1,67,69,71,73,75,77,79,81,83,-1,85,87,89,-1,91,-1,93,95,97,-1,-1,-1,-1,-1,-1,-1,-1,-1,-1,-1,-1,-1,-1,-1,-1,-1,-1,-1,-1,-1,-1,-1,-1,-1,-1,-1,-1,-1,-1,-1,-1,-1,-1,-1,-1,-1,-1,-1,-1,-1,-1],"loss_changes":[2.284274E2,2.8574332E2,2.748729E1,4.0577393E0,1.4723239E2,1.5648987E1,6.005722E0,6.9026413E0,1.3253174E0,4.894507E1,9.078091E0,7.109909E0,9.606819E-1,4.0705326E-1,3.0616455E0,2.5061188E0,2.6296134E0,1.1390991E0,1.4171357E0,1.5020126E1,2.6510597E1,5.625087E0,2.3317854E1,9.837971E-1,7.5015583E0,3.883896E-1,0E0,0E0,3.3153635E-1,0E0,7.4331665E-1,2.5088158E0,4.655571E-1,2.000614E0,0E0,1.3403854E0,2.5138104E-1,0E0,7.35116E-1,3.6914968E0,1.6389511E1,2.1175812E1,1.4923149E1,4.2311115E0,7.685011E0,1.055088E0,6.7897286E0,0E0,1.4634342E0,3.0803137E0,5.4972706E0,0E0,1.4633566E-1,0E0,8.841132E-2,1.6680145E0,4.0686035E-1,0E0,0E0,0E0,0E0,0E0,0E0,0E0,0E0,0E0,0E0,0E0,0E0,0E0,0E0,0E0,0E0,0E0,0E0,0E0,0E0,0E0,0E0,0E0,0E0,0E0,0E0,0E0,0E0,0E0,0E0,0E0,0E0,0E0,0E0,0E0,0E0,0E0,0E0,0E0,0E0,0E0,0E0],"parents":[2147483647,0,0,1,1,2,2,3,3,4,4,5,5,6,6,7,7,8,8,9,9,10,10,11,11,12,12,13,13,14,14,15,15,16,16,17,17,18,18,19,19,20,20,21,21,22,22,23,23,24,24,25,25,28,28,30,30,31,31,32,32,33,33,35,35,36,36,38,38,39,39,40,40,41,41,42,42,43,43,44,44,45,45,46,46,48,48,49,49,50,50,52,52,54,54,55,55,56,56],"right_children":[2,4,6,8,10,12,14,16,18,20,22,24,26,28,30,32,34,36,38,40,42,44,46,48,50,52,-1,-1,54,-1,56,58,60,62,-1,64,66,-1,68,70,72,74,76,78,80,82,84,-1,86,88,90,-1,92,-1,94,96,98,-1,-1,-1,-1,-1,-1,-1,-1,-1,-1,-1,-1,-1,-1,-1,-1,-1,-1,-1,-1,-1,-1,-1,-1,-1,-1,-1,-1,-1,-1,-1,-1,-1,-1,-1,-1,-1,-1,-1,-1,-1,-1],"split_conditions":[4.1501155E-1,1.2607747E-2,1.5E0,5.185185E-1,9.813875E-1,9.998959E-1,4.3705714E-1,5.030181E-1,1.25E1,1.01005E-1,2.5E0,6.948229E-1,5E0,4.2793825E-1,6.948229E-1,9.96E-1,6.07E0,1.0308215E-2,6.5462756E-1,3.6363637E-1,3.1248373E-1,1.129E1,6.07E0,5.151515E-1,9.9040765E-1,9.99975E-1,-3.8132071E-3,1.4661496E-2,4.3471816E-1,2.2619773E-2,1.289E1,2.34E-1,8.856E0,5.081301E-1,2.842871E-2,9.95E0,5.04E-1,1.781795E-2,1.303E1,1.303E1,5.081301E-1,9.161491E-1,6.68239E-1,1.85E0,1.0639659E0,3.95E0,1.733801E-1,1.6017199E-3,6.58858E-1,3.4E-1,1.125E1,-5.978931E-2,3.054E0,-1.9732738E-2,1.0639659E0,8.69E0,7.5E1,-4.9092364E-2,-2.5767783E-2,-4.5597855E-2,-1.2475678E-2,-2.7620283E-4,-2.6354168E-2,-4.4452965E-2,-6.9045044E-2,-2.3517137E-2,1.8540741E-3,-6.272343E-3,-3.6210664E-2,1.0971861E-2,-4.2136025E-2,6.07432E-2,3.5486046E-2,2.0857874E-2,5.3739816E-2,-2.2341121E-2,1.1595315E-2,3.781044E-4,1.5954291E-2,-3.6993023E-2,2.4600795E-2,-5.456611E-2,-3.075113E-2,-1.34436255E-2,4.464345E-3,-7.2011255E-2,-3.5483655E-2,4.522159E-2,1.2367469E-3,-1.5882634E-2,-5.1000178E-2,-2.2634745E-3,-2.827834E-2,1.0633516E-2,-3.1507653E-3,-4.9098022E-2,-3.3516288E-2,-6.7378126E-2,-2.3336586E-2],"split_indices":[7,7,1,6,6,7,7,6,3,7,1,6,6,7,6,0,3,7,6,6,7,3,3,6,6,7,0,0,7,0,1,0,0,6,0,3,0,0,3,3,6,6,6,1,6,3,7,0,6,1,3,0,0,0,6,3,0,0,0,0,0,0,0,0,0,0,0,0,0,0,0,0,0,0,0,0,0,0,0,0,0,0,0,0,0,0,0,0,0,0,0,0,0,0,0,0,0,0,0],"split_type":[0,0,0,0,0,0,0,0,0,0,0,0,0,0,0,0,0,0,0,0,0,0,0,0,0,0,0,0,0,0,0,0,0,0,0,0,0,0,0,0,0,0,0,0,0,0,0,0,0,0,0,0,0,0,0,0,0,0,0,0,0,0,0,0,0,0,0,0,0,0,0,0,0,0,0,0,0,0,0,0,0,0,0,0,0,0,0,0,0,0,0,0,0,0,0,0,0,0,0],"sum_hessian":[2.607E3,2.111E3,4.96E2,3.18E2,1.793E3,3.04E2,1.92E2,1.8E2,1.38E2,1.078E3,7.15E2,2.75E2,2.9E1,7E0,1.85E2,1.48E2,3.2E1,1.22E2,1.6E1,2.95E2,7.83E2,4.69E2,2.46E2,2.1E1,2.54E2,2.8E1,1E0,2E0,5E0,1E0,1.84E2,8.9E1,5.9E1,2.9E1,3E0,1.16E2,6E0,1E0,1.5E1,2E1,2.75E2,6.43E2,1.4E2,4.44E2,2.5E1,3.6E1,2.1E2,1E0,2E1,1.7E1,2.37E2,2.6E1,2E0,2E0,3E0,1.69E2,1.5E1,1.5E1,7.4E1,5.7E1,2E0,1.3E1,1.6E1,1.07E2,9E0,5E0,1E0,3E0,1.2E1,1.7E1,3E0,1.16E2,1.59E2,5.9E2,5.3E1,4.9E1,9.1E1,3.96E2,4.8E1,1.9E1,6E0,2.4E1,1.2E1,1.06E2,1.04E2,5E0,1.5E1,5E0,1.2E1,2.26E2,1.1E1,1E0,1E0,1E0,2E0,1.38E2,3.1E1,1.3E1,2E0],"tree_param":{"num_deleted":"0","num_feature":"8","num_nodes":"99","size_leaf_vector":"1"}},{"base_weights":[6.2458357E-4,2.3923782E-1,-2.625665E-1,-5.21303E-1,2.935449E-1,-1.530328E-1,-4.4887057E-1,-3.8193816E-1,-9.41041E-1,3.423825E-1,-8.7728985E-2,-9.190743E-2,-5.3967756E-1,-9.263978E-1,-2.7941906E-1,-4.0978846E-1,3.8493287E-2,-4.9345627E-2,5.5655243E-4,3.3016086E-1,1.4494462E0,-7.06523E-1,-2.5691465E-5,-4.299721E-1,-3.8981535E-2,-5.635529E-1,4.678947E-1,-9.5187414E-1,4.4015765E-2,-1.6975919E-2,-5.678381E-1,-4.4177756E-1,2.2047901E-1,4.5493224E-1,2.191636E-1,1.577719E0,5.3872126E-1,-8.4596974E-1,-1.7476764E-1,7.9145916E-2,-7.719467E-1,-2.867975E-1,-8.408016E-1,-1.1663884E-2,-5.2503574E-1,-5.00539E-1,-1.0508034E0,4.7631502E-2,-1.2539399E-2,-9.656551E-1,1.5823293E-2,-3.6788393E-2,2.7459979E-2,-1.7536545E-1,4.4134545E-1,-1.0142026E0,-3.3939803E-1,-3.620333E-2,-1.6041724E-2,-7.123653E-3,3.273338E-2,-2.3923993E-2,2.3980744E-2,3.4709226E-3,2.5953082E-2,4.8055008E-2,1.001059E-1,-9.525192E-3,4.9929287E-2,-4.550382E-2,-3.1456948E-4,1.2396097E-2,-2.6960066E-2,-4.763526E-3,2.2212781E-2,-7.6948404E-3,-4.400835E-2,-2.8013125E-2,1.4252833E-3,-1.3192504E-3,-4.8082244E-2,-2.426965E-3,1.4895613E-2,-3.699828E-2,-6.1533167E-3,-3.8821887E-2,-1.656279E-2,-5.587324E-2,-9.604752E-3,-5.2252747E-2,-3.9842945E-2,-2.7970036E-3,-2.752768E-2,4.72024E-2,-2.8011238E-2,-5.468577E-2,-1.6204279E-2,-7.297758E-3,-4.719367E-2],"categories":[],"categories_nodes":[],"categories_segments":[],"categories_sizes":[],"default_left":[0,0,0,0,0,0,0,0,0,0,0,0,0,0,0,0,0,0,0,0,0,0,0,0,0,0,0,0,0,0,0,0,0,0,0,0,0,0,0,0,0,0,0,0,0,0,0,0,0,0,0,0,0,0,0,0,0,0,0,0,0,0,0,0,0,0,0,0,0,0,0,0,0,0,0,0,0,0,0,0,0,0,0,0,0,0,0,0,0,0,0,0,0,0,0,0,0,0,0],"id":9,"left_children":[1,3,5,7,9,11,13,15,17,19,21,23,25,27,29,31,-1,-1,-1,33,35,37,39,41,43,45,47,49,51,53,55,57,59,61,63,65,67,69,71,73,75,77,79,81,83,85,87,-1,-1,89,-1,-1,-1,91,93,95,97,-1,-1,-1,-1,-1,-1,-1,-1,-1,-1,-1,-1,-1,-1,-1,-1,-1,-1,-1,-1,-1,-1,-1,-1,-1,-1,-1,-1,-1,-1,-1,-1,-1,-1,-1,-1,-1,-1,-1,-1,-1,-1],"loss_changes":[1.6284268E2,5.632476E1,2.5092613E1,4.9637833E0,2.3678093E1,1.8337503E1,3.663961E1,2.5609465E0,9.718933E-1,1.4756393E1,7.869172E0,1.2024809E1,2.8136368E0,2.9838943E0,2.5574793E1,1.4885597E0,0E0,0E0,0E0,1.5342224E1,5.519047E-1,1.1868792E0,7.883718E0,5.111511E0,7.734867E0,2.667202E0,1.2840209E0,2.3331528E0,1.9798195E0,1.2999004E1,1.6072556E1,2.0209932E0,7.2363114E-1,1.2301971E1,2.6549667E1,6.92688E-1,1.1962686E0,7.4788094E-1,9.0389144E-1,7.493017E0,6.67171E-1,5.965453E0,2.2382126E0,6.327369E0,2.5871868E0,4.133072E0,4.150095E-1,0E0,0E0,7.08519E-1,0E0,0E0,0E0,5.928532E0,2.3689507E1,2.6086998E0,1.2490829E1,0E0,0E0,0E0,0E0,0E0,0E0,0E0,0E0,0E0,0E0,0E0,0E0,0E0,0E0,0E0,0E0,0E0,0E0,0E0,0E0,0E0,0E0,0E0,0E0,0E0,0E0,0E0,0E0,0E0,0E0,0E0,0E0,0E0,0E0,0E0,0E0,0E0,0E0,0E0,0E0,0E0,0E0],"parents":[2147483647,0,0,1,1,2,2,3,3,4,4,5,5,6,6,7,7,8,8,9,9,10,10,11,11,12,12,13,13,14,14,15,15,19,19,20,20,21,21,22,22,23,23,24,24,25,25,26,26,27,27,28,28,29,29,30,30,31,31,32,32,33,33,34,34,35,35,36,36,37,37,38,38,39,39,40,40,41,41,42,42,43,43,44,44,45,45,46,46,49,49,53,53,54,54,55,55,56,56],"right_children":[2,4,6,8,10,12,14,16,18,20,22,24,26,28,30,32,-1,-1,-1,34,36,38,40,42,44,46,48,50,52,54,56,58,60,62,64,66,68,70,72,74,76,78,80,82,84,86,88,-1,-1,90,-1,-1,-1,92,94,96,98,-1,-1,-1,-1,-1,-1,-1,-1,-1,-1,-1,-1,-1,-1,-1,-1,-1,-1,-1,-1,-1,-1,-1,-1,-1,-1,-1,-1,-1,-1,-1,-1,-1,-1,-1,-1,-1,-1,-1,-1,-1,-1],"split_conditions":[9.702073E-1,3.8650307E-1,2.46E0,1.5E0,4.96E0,1.1792452E0,5.79E0,1.4E0,1.289E1,9.593496E-1,1.195E1,3.2E-1,1.275E1,1.1052631E0,5.55E0,8.79E0,3.8493287E-2,-4.9345627E-2,5.5655243E-4,6.043956E-1,1.92E0,6.95E0,3E1,9.45E-1,5.795E0,1.5E0,4.955E0,5E0,2.48E0,1.474E1,1.295E1,1.8082191E-1,4E-1,2.1E-1,6.8421054E-1,1.4E0,2.48E0,1.102E1,8.15E0,6.698873E-1,6.6561013E-1,1.67E0,9.969789E-1,1.85E0,6.75E0,1.7E0,4.955E0,4.7631502E-2,-1.2539399E-2,4.25E0,1.5823293E-2,-3.6788393E-2,2.7459979E-2,1.0019685E0,2.195E1,1.0119047E0,2.195E1,-3.620333E-2,-1.6041724E-2,-7.123653E-3,3.273338E-2,-2.3923993E-2,2.3980744E-2,3.4709226E-3,2.5953082E-2,4.8055008E-2,1.001059E-1,-9.525192E-3,4.9929287E-2,-4.550382E-2,-3.1456948E-4,1.2396097E-2,-2.6960066E-2,-4.763526E-3,2.2212781E-2,-7.6948404E-3,-4.400835E-2,-2.8013125E-2,1.4252833E-3,-1.3192504E-3,-4.8082244E-2,-2.426965E-3,1.4895613E-2,-3.699828E-2,-6.1533167E-3,-3.8821887E-2,-1.656279E-2,-5.587324E-2,-9.604752E-3,-5.2252747E-2,-3.9842945E-2,-2.7970036E-3,-2.752768E-2,4.72024E-2,-2.8011238E-2,-5.468577E-2,-1.6204279E-2,-7.297758E-3,-4.719367E-2],"split_indices":[6,6,1,1,4,6,3,1,1,6,3,1,3,6,1,2,0,0,0,6,1,1,3,2,2,1,2,1,1,3,3,6,1,1,6,1,1,2,1,6,6,3,6,1,2,3,2,0,0,3,0,0,0,6,3,6,4,0,0,0,0,0,0,0,0,0,0,0,0,0,0,0,0,0,0,0,0,0,0,0,0,0,0,0,0,0,0,0,0,0,0,0,0,0,0,0,0,0,0],"split_type":[0,0,0,0,0,0,0,0,0,0,0,0,0,0,0,0,0,0,0,0,0,0,0,0,0,0,0,0,0,0,0,0,0,0,0,0,0,0,0,0,0,0,0,0,0,0,0,0,0,0,0,0,0,0,0,0,0,0,0,0,0,0,0,0,0,0,0,0,0,0,0,0,0,0,0,0,0,0,0,0,0,0,0,0,0,0,0,0,0,0,0,0,0,0,0,0,0,0,0],"sum_hessian":[2.591E3,1.359E3,1.232E3,9E1,1.269E3,7.77E2,4.55E2,6.9E1,2.1E1,1.125E3,1.44E2,6.72E2,1.05E2,1.18E2,3.37E2,6.8E1,1E0,2E1,1E0,1.114E3,1.1E1,1.7E1,1.27E2,9E1,5.82E2,1.03E2,2E0,1.15E2,3E0,1.77E2,1.6E2,6.5E1,3E0,5.23E2,5.91E2,9E0,2E0,1.3E1,4E0,1.16E2,1.1E1,6.8E1,2.2E1,5.52E2,3E1,9.3E1,1E1,1E0,1E0,1.14E2,1E0,1E0,2E0,1.32E2,4.5E1,5.3E1,1.07E2,1.8E1,4.7E1,2E0,1E0,1.3E1,5.1E2,3.95E2,1.96E2,5E0,4E0,1E0,1E0,1.2E1,1E0,2E0,2E0,7.9E1,3.7E1,2E0,9E0,3.6E1,3.2E1,3E0,1.9E1,4.94E2,5.8E1,1.9E1,1.1E1,3.4E1,5.9E1,9E0,1E0,7.4E1,4E1,1.01E2,3.1E1,3E1,1.5E1,4.7E1,6E0,8.2E1,2.5E1],"tree_param":{"num_deleted":"0","num_feature":"8","num_nodes":"99","size_leaf_vector":"1"}},{"base_weights":[2.0218426E-3,1.3849422E-1,-5.989196E-1,-6.74084E-1,2.8098217E-1,-3.5838792E-1,-7.6312083E-1,-5.917698E-1,-8.434956E-1,3.4820184E-1,-8.5979E-2,-2.287227E-1,-8.88091E-1,-3.0074582E-1,-8.2742196E-1,-6.2412214E-1,-2.0481497E-1,-8.8315254E-1,-5.368065E-1,5.9807837E-1,2.830434E-1,2.0392302E-1,-2.2659454E-1,-3.3887812E-1,2.5256974E-1,-6.413499E-1,-1.0383868E0,-4.3069756E-1,2.99154E-1,-7.3498213E-1,-5.022329E-2,-2.1854037E-1,-6.6368604E-1,-5.22837E-1,-2.2342205E-3,-8.053352E-1,-1.1192704E0,1.5982866E-1,-6.6623145E-1,6.7508996E-1,-2.8501667E-2,3.6692712E-1,1.1287268E-1,-3.301814E-1,3.0532098E-1,-8.0331045E-1,-1.6041586E-1,-4.557029E-1,4.068581E-1,-3.1599466E-2,3.7426108E-1,-7.086731E-1,-4.547517E-3,-1.0800046E0,-2.0740312E-2,-2.7384711E-2,-3.2227236E-1,3.7343994E-2,-2.9312324E-2,-9.6632946E-1,-6.2693304E-1,-3.8293056E-2,1.245674E-2,-3.373449E-2,1.0338092E-2,-4.577006E-2,-1.5242136E-2,1.4175232E-2,-1.6761191E-2,-4.526232E-2,-1.5265708E-2,-1.3288665E-2,-5.7596095E-2,1.2861348E-2,-8.741975E-4,-8.8970065E-3,-3.472226E-2,5.7660853E-3,3.6508247E-2,-5.0238866E-2,1.2572608E-2,1.9052368E-2,-3.415437E-2,-5.159344E-2,6.9533773E-3,-4.3417264E-2,-1.1485822E-2,2.7761212E-2,5.7636835E-3,-8.321083E-3,-4.1472375E-2,-2.4738852E-3,-2.2366514E-2,-1.1104888E-2,-3.0757675E-2,3.4281086E-2,1.0517059E-2,3.149567E-2,1.1014143E-4,-3.749266E-2,-3.303802E-3,-2.1122154E-2,-5.6479897E-2,5.4138205E-3,-2.732849E-2,5.854368E-3,-1.5372777E-2,-5.2936893E-2,-2.4079053E-2,-5.3289714E-3,-3.6071032E-2],"categories":[],"categories_nodes":[],"categories_segments":[],"categories_sizes":[],"default_left":[0,0,0,0,0,0,0,0,0,0,0,0,0,0,0,0,0,0,0,0,0,0,0,0,0,0,0,0,0,0,0,0,0,0,0,0,0,0,0,0,0,0,0,0,0,0,0,0,0,0,0,0,0,0,0,0,0,0,0,0,0,0,0,0,0,0,0,0,0,0,0,0,0,0,0,0,0,0,0,0,0,0,0,0,0,0,0,0,0,0,0,0,0,0,0,0,0,0,0,0,0,0,0,0,0,0,0,0,0,0,0],"id":10,"left_children":[1,3,5,7,9,11,13,15,17,19,21,23,25,27,29,31,33,35,37,39,41,43,45,47,49,51,53,55,57,59,-1,61,63,65,67,69,71,73,75,77,79,81,83,85,87,89,91,93,95,-1,97,99,-1,101,-1,-1,103,-1,105,107,109,-1,-1,-1,-1,-1,-1,-1,-1,-1,-1,-1,-1,-1,-1,-1,-1,-1,-1,-1,-1,-1,-1,-1,-1,-1,-1,-1,-1,-1,-1,-1,-1,-1,-1,-1,-1,-1,-1,-1,-1,-1,-1,-1,-1,-1,-1,-1,-1,-1,-1],"loss_changes":[2.1093555E2,2.4286975E2,1.8526413E1,3.8656158E0,4.403589E1,1.3190268E1,8.135361E0,2.5512238E0,7.4214935E-1,2.43833E1,1.1338038E1,8.462273E0,7.43227E-1,2.9353347E0,3.304123E0,3.016098E0,1.1584842E0,6.971588E-1,1.3687506E0,1.502623E1,1.7059502E1,5.029107E0,7.008233E0,1.1423946E1,3.4658241E0,5.6547594E-1,1.22953415E-1,2.0405483E-1,1.051333E0,3.5436554E0,0E0,5.0542006E0,1.8539886E0,3.1998396E-1,1.2368144E0,3.1706963E0,2.2333908E-1,5.6307174E-2,4.1748524E-2,8.45549E0,9.818576E0,1.2151108E1,1.2048077E1,6.115258E-1,3.5929923E0,1.7824364E-1,5.3570957E0,4.035204E0,8.418572E-1,0E0,2.566787E0,3.4738588E-1,0E0,1.7502213E-1,0E0,0E0,1.7974582E0,0E0,2.3959956E-1,1.7746658E0,5.62648E0,0E0,0E0,0E0,0E0,0E0,0E0,0E0,0E0,0E0,0E0,0E0,0E0,0E0,0E0,0E0,0E0,0E0,0E0,0E0,0E0,0E0,0E0,0E0,0E0,0E0,0E0,0E0,0E0,0E0,0E0,0E0,0E0,0E0,0E0,0E0,0E0,0E0,0E0,0E0,0E0,0E0,0E0,0E0,0E0,0E0,0E0,0E0,0E0,0E0,0E0],"parents":[2147483647,0,0,1,1,2,2,3,3,4,4,5,5,6,6,7,7,8,8,9,9,10,10,11,11,12,12,13,13,14,14,15,15,16,16,17,17,18,18,19,19,20,20,21,21,22,22,23,23,24,24,25,25,26,26,27,27,28,28,29,29,31,31,32,32,33,33,34,34,35,35,36,36,37,37,38,38,39,39,40,40,41,41,42,42,43,43,44,44,45,45,46,46,47,47,48,48,50,50,51,51,53,53,56,56,58,58,59,59,60,60],"right_children":[2,4,6,8,10,12,14,16,18,20,22,24,26,28,30,32,34,36,38,40,42,44,46,48,50,52,54,56,58,60,-1,62,64,66,68,70,72,74,76,78,80,82,84,86,88,90,92,94,96,-1,98,100,-1,102,-1,-1,104,-1,106,108,110,-1,-1,-1,-1,-1,-1,-1,-1,-1,-1,-1,-1,-1,-1,-1,-1,-1,-1,-1,-1,-1,-1,-1,-1,-1,-1,-1,-1,-1,-1,-1,-1,-1,-1,-1,-1,-1,-1,-1,-1,-1,-1,-1,-1,-1,-1,-1,-1,-1,-1],"split_conditions":[4.1501155E-1,1.4888214E-2,1.494E0,5.9E0,3.5489863E-1,9.9923134E-1,4.3705714E-1,8.65E0,2.913E1,9.479833E-2,1.87E0,9.987516E-1,9.45E-1,7.985E0,9.768504E-1,9.5E-1,1.35E0,1.495E1,3.043E1,2.976E0,7.22E0,3.6479905E-1,3.04E0,1.35E0,1.8E-1,8.4E-1,1.266E0,2.955E0,8.856E0,4.33E0,-5.022329E-2,8.5E-1,2.976E0,1.0308215E-2,1.163E1,1.25E1,9.96E-1,1.776E0,3E-1,2.6476039E-2,1.129E1,2.094E0,2.955E0,4.47E-1,3.963607E-1,3.6230835E-1,5.685E0,4.611837E-1,2.46E0,-3.1599466E-2,3.8E-1,8.76E-1,-4.547517E-3,9.995654E-1,-2.0740312E-2,-2.7384711E-2,3.94E0,3.7343994E-2,1.613E1,9.6116877E-1,3.48E0,-3.8293056E-2,1.245674E-2,-3.373449E-2,1.0338092E-2,-4.577006E-2,-1.5242136E-2,1.4175232E-2,-1.6761191E-2,-4.526232E-2,-1.5265708E-2,-1.3288665E-2,-5.7596095E-2,1.2861348E-2,-8.741975E-4,-8.8970065E-3,-3.472226E-2,5.7660853E-3,3.6508247E-2,-5.0238866E-2,1.2572608E-2,1.9052368E-2,-3.415437E-2,-5.159344E-2,6.9533773E-3,-4.3417264E-2,-1.1485822E-2,2.7761212E-2,5.7636835E-3,-8.321083E-3,-4.1472375E-2,-2.4738852E-3,-2.2366514E-2,-1.1104888E-2,-3.0757675E-2,3.4281086E-2,1.0517059E-2,3.149567E-2,1.1014143E-4,-3.749266E-2,-3.303802E-3,-2.1122154E-2,-5.6479897E-2,5.4138205E-3,-2.732849E-2,5.854368E-3,-1.5372777E-2,-5.2936893E-2,-2.4079053E-2,-5.3289714E-3,-3.6071032E-2],"split_indices":[7,7,0,2,7,7,7,3,3,7,2,7,2,2,7,3,2,3,3,0,3,7,3,0,0,2,0,2,0,3,0,3,0,7,3,3,0,0,0,7,3,0,2,0,7,7,2,7,2,0,2,0,0,7,0,0,2,0,2,7,2,0,0,0,0,0,0,0,0,0,0,0,0,0,0,0,0,0,0,0,0,0,0,0,0,0,0,0,0,0,0,0,0,0,0,0,0,0,0,0,0,0,0,0,0,0,0,0,0,0,0],"split_type":[0,0,0,0,0,0,0,0,0,0,0,0,0,0,0,0,0,0,0,0,0,0,0,0,0,0,0,0,0,0,0,0,0,0,0,0,0,0,0,0,0,0,0,0,0,0,0,0,0,0,0,0,0,0,0,0,0,0,0,0,0,0,0,0,0,0,0,0,0,0,0,0,0,0,0,0,0,0,0,0,0,0,0,0,0,0,0,0,0,0,0,0,0,0,0,0,0,0,0,0,0,0,0,0,0,0,0,0,0,0,0],"sum_hessian":[2.57E3,2.095E3,4.75E2,3.12E2,1.783E3,1.94E2,2.81E2,2.13E2,9.9E1,1.507E3,2.76E2,1.57E2,3.7E1,3.5E1,2.46E2,1.96E2,1.7E1,8.6E1,1.3E1,3.1E2,1.197E3,9E1,1.86E2,1.28E2,2.9E1,1.6E1,2.1E1,2.9E1,6E0,1.65E2,8.1E1,1.8E1,1.78E2,6E0,1.1E1,6.8E1,1.8E1,2E0,1.1E1,2.76E2,3.4E1,8.01E2,3.96E2,1.4E1,7.6E1,1.8E1,1.68E2,1.11E2,1.7E1,3E0,2.6E1,1.4E1,2E0,1.9E1,2E0,1.2E1,1.7E1,2E0,4E0,5E1,1.15E2,8E0,1E1,1.76E2,2E0,1E0,5E0,6E0,5E0,5.6E1,1.2E1,1E0,1.7E1,1E0,1E0,1E0,1E1,2.5E1,2.51E2,7E0,2.7E1,7.91E2,1E1,8E0,3.88E2,1E0,1.3E1,3.2E1,4.4E1,1E0,1.7E1,1.22E2,4.6E1,4.6E1,6.5E1,6E0,1.1E1,1.5E1,1.1E1,1.3E1,1E0,2E0,1.7E1,6E0,1.1E1,3E0,1E0,4.1E1,9E0,1.8E1,9.7E1],"tree_param":{"num_deleted":"0","num_feature":"8","num_nodes":"111","size_leaf_vector":"1"}},{"base_weights":[1.0101483E-2,1.3971405E-1,-5.854677E-1,-6.824543E-1,2.8528598E-1,-8.1852645E-2,-6.5863174E-1,-4.8551005E-1,-7.305631E-1,4.7988716E-1,-1.9543184E-2,-3.2050878E-2,1.6499983E-2,-3.7111035E-1,-7.5168425E-1,-8.0919623E-1,-2.9355708E-1,-6.0296725E-2,-7.40963E-1,5.926168E-1,1.606458E-1,-8.01555E-2,1.519151E-1,1.0752264E-1,-5.84006E-1,-9.9115485E-1,-3.071156E-1,-7.096982E-1,-9.670609E-1,-2.022775E-1,-4.275881E-2,-4.8013064E-1,2.0033697E-2,2.0361662E-2,-1.39493765E-2,-5.9230443E-2,-7.098888E-1,7.4438024E-1,4.423582E-1,-1.5577672E-1,3.0381483E-1,-1.5886558E-2,-3.1856015E-1,2.0198157E-1,-9.810535E-1,-1.21463984E-1,5.4446405E-1,-7.5288415E-3,-6.311481E-1,-5.6218445E-2,1.8639326E-3,-9.183124E-2,-4.1854626E-1,-8.024319E-1,-5.3838456E-1,-1.1254643E0,-6.493296E-1,-2.005204E-2,4.881227E-3,-1.1995336E-2,-3.802092E-2,2.1887315E-2,-1.2380234E-2,-3.5844665E-2,3.8876694E-3,9.684371E-4,3.9805777E-2,1.2443327E-2,4.3083016E-2,3.7446674E-3,-2.9170755E-2,2.6933616E-2,1.1096893E-2,-4.694752E-3,2.8962953E-2,4.1596526E-3,-3.0207885E-2,2.3321463E-2,6.3435645E-3,-6.2354922E-2,-2.0161694E-2,2.6443586E-2,-1.3343488E-2,3.7620075E-2,8.4815025E-3,-1.5582922E-2,-4.233758E-2,-1.8373424E-2,5.28532E-3,-1.1394124E-2,-3.0398473E-2,-3.489856E-2,-4.81069E-2,2.2665428E-3,-3.1217957E-2,-5.7991523E-2,-3.221202E-3,-6.256429E-3,-4.2066008E-2],"categories":[],"categories_nodes":[],"categories_segments":[],"categories_sizes":[],"default_left":[0,0,0,0,0,0,0,0,0,0,0,0,0,0,0,0,0,0,0,0,0,0,0,0,0,0,0,0,0,0,0,0,0,0,0,0,0,0,0,0,0,0,0,0,0,0,0,0,0,0,0,0,0,0,0,0,0,0,0,0,0,0,0,0,0,0,0,0,0,0,0,0,0,0,0,0,0,0,0,0,0,0,0,0,0,0,0,0,0,0,0,0,0,0,0,0,0,0,0],"id":11,"left_children":[1,3,5,7,9,11,13,15,17,19,21,-1,23,25,27,29,31,33,35,37,39,41,43,45,47,49,51,53,55,57,-1,59,61,-1,-1,-1,63,65,67,69,71,73,75,77,79,81,83,-1,85,-1,-1,87,89,91,93,95,97,-1,-1,-1,-1,-1,-1,-1,-1,-1,-1,-1,-1,-1,-1,-1,-1,-1,-1,-1,-1,-1,-1,-1,-1,-1,-1,-1,-1,-1,-1,-1,-1,-1,-1,-1,-1,-1,-1,-1,-1,-1,-1],"loss_changes":[2.0039828E2,2.5536234E2,1.7042877E1,2.6867065E0,1.0749744E2,3.3102973E0,1.0556641E1,3.863202E0,1.7398224E0,3.9707474E1,7.3596625E0,0E0,2.9050958E0,3.7032385E0,2.071762E0,4.9676514E-1,2.5254517E0,6.248355E-1,2.6331024E0,1.8301361E1,1.3184878E1,8.008351E0,1.0692048E1,4.668605E0,4.7992945E-2,1.274931E0,2.192566E0,3.6825867E0,1.6347046E0,2.1797997E-1,0E0,1.63553E0,2.0089188E0,0E0,0E0,0E0,1.3687744E0,1.5175598E1,3.3292862E1,9.020242E0,3.7263336E0,1.922849E1,1.278637E1,3.4763908E0,7.269354E-1,3.0725794E0,1.119442E0,0E0,1.4940119E-1,0E0,0E0,1.8356518E0,2.06454E0,2.0978317E0,4.7456627E0,1.0191879E0,1.7062755E0,0E0,0E0,0E0,0E0,0E0,0E0,0E0,0E0,0E0,0E0,0E0,0E0,0E0,0E0,0E0,0E0,0E0,0E0,0E0,0E0,0E0,0E0,0E0,0E0,0E0,0E0,0E0,0E0,0E0,0E0,0E0,0E0,0E0,0E0,0E0,0E0,0E0,0E0,0E0,0E0,0E0,0E0],"parents":[2147483647,0,0,1,1,2,2,3,3,4,4,5,5,6,6,7,7,8,8,9,9,10,10,12,12,13,13,14,14,15,15,16,16,17,17,18,18,19,19,20,20,21,21,22,22,23,23,24,24,25,25,26,26,27,27,28,28,29,29,31,31,32,32,36,36,37,37,38,38,39,39,40,40,41,41,42,42,43,43,44,44,45,45,46,46,48,48,51,51,52,52,53,53,54,54,55,55,56,56],"right_children":[2,4,6,8,10,12,14,16,18,20,22,-1,24,26,28,30,32,34,36,38,40,42,44,46,48,50,52,54,56,58,-1,60,62,-1,-1,-1,64,66,68,70,72,74,76,78,80,82,84,-1,86,-1,-1,88,90,92,94,96,98,-1,-1,-1,-1,-1,-1,-1,-1,-1,-1,-1,-1,-1,-1,-1,-1,-1,-1,-1,-1,-1,-1,-1,-1,-1,-1,-1,-1,-1,-1,-1,-1,-1,-1,-1,-1,-1,-1,-1,-1,-1,-1],"split_conditions":[4.1501155E-1,1.2607747E-2,5.04E-1,4.47E-1,9.880952E-1,1.8E-1,4.687207E-1,2.34E-1,8.35E-1,1.9809452E-1,1.0013351E0,-3.2050878E-2,9.9923134E-1,6.68239E-1,9.999225E-1,4.3E-1,2.55E0,4.86E-1,1.525E0,6.043956E-1,6.680162E-1,3.5489863E-1,1.0188E1,1.1445242E0,1.1651918E0,1.266E0,1.494E0,1.0203252E0,5.605E0,7.2E-2,-4.275881E-2,1.05E0,1.855E0,2.0361662E-2,-1.39493765E-2,-5.9230443E-2,1.0308215E-2,3.8650307E-1,6.8421054E-1,6.596306E-1,6.7729086E-1,2.9499704E-1,9.96E-1,1.0438596E0,1.1122994E0,9.8812354E-1,1.3261455E0,-7.5288415E-3,3.2E-1,-5.6218445E-2,1.8639326E-3,4.3705714E-1,4.3705714E-1,1.0005885E0,1.0666667E0,5E0,7.632E0,-2.005204E-2,4.881227E-3,-1.1995336E-2,-3.802092E-2,2.1887315E-2,-1.2380234E-2,-3.5844665E-2,3.8876694E-3,9.684371E-4,3.9805777E-2,1.2443327E-2,4.3083016E-2,3.7446674E-3,-2.9170755E-2,2.6933616E-2,1.1096893E-2,-4.694752E-3,2.8962953E-2,4.1596526E-3,-3.0207885E-2,2.3321463E-2,6.3435645E-3,-6.2354922E-2,-2.0161694E-2,2.6443586E-2,-1.3343488E-2,3.7620075E-2,8.4815025E-3,-1.5582922E-2,-4.233758E-2,-1.8373424E-2,5.28532E-3,-1.1394124E-2,-3.0398473E-2,-3.489856E-2,-4.81069E-2,2.2665428E-3,-3.1217957E-2,-5.7991523E-2,-3.221202E-3,-6.256429E-3,-4.2066008E-2],"split_indices":[7,7,0,0,6,0,7,0,2,7,6,0,7,6,7,3,3,0,2,6,6,7,0,6,6,0,0,6,2,0,0,3,2,0,0,0,7,6,6,6,6,7,0,6,6,6,6,0,2,0,0,7,7,6,6,6,0,0,0,0,0,0,0,0,0,0,0,0,0,0,0,0,0,0,0,0,0,0,0,0,0,0,0,0,0,0,0,0,0,0,0,0,0,0,0,0,0,0,0],"split_type":[0,0,0,0,0,0,0,0,0,0,0,0,0,0,0,0,0,0,0,0,0,0,0,0,0,0,0,0,0,0,0,0,0,0,0,0,0,0,0,0,0,0,0,0,0,0,0,0,0,0,0,0,0,0,0,0,0,0,0,0,0,0,0,0,0,0,0,0,0,0,0,0,0,0,0,0,0,0,0,0,0,0,0,0,0,0,0,0,0,0,0,0,0,0,0,0,0,0,0],"sum_hessian":[2.594E3,2.131E3,4.63E2,3.2E2,1.811E3,5.9E1,4.04E2,6.5E1,2.55E2,1.105E3,7.06E2,8E0,5.1E1,1E2,3.04E2,2.3E1,4.2E1,4E0,2.51E2,8.16E2,2.89E2,5.22E2,1.84E2,4.5E1,6E0,8E0,9.2E1,2.58E2,4.6E1,2E0,2.1E1,2.6E1,1.6E1,1E0,3E0,1.4E1,2.37E2,4.04E2,4.12E2,9E1,1.99E2,4.12E2,1.1E2,1.77E2,7E0,3E1,1.5E1,1E0,5E0,7E0,1E0,3.2E1,6E1,1.65E2,9.3E1,2.9E1,1.7E1,1E0,1E0,1.5E1,1.1E1,6E0,1E1,2.35E2,2E0,2.7E1,3.77E2,2.83E2,1.29E2,5.9E1,3.1E1,5E1,1.49E2,3.65E2,4.7E1,4.6E1,6.4E1,3.8E1,1.39E2,4E0,3E0,5E0,2.5E1,9E0,6E0,3E0,2E0,1.3E1,1.9E1,3.1E1,2.9E1,1.03E2,6.2E1,1.2E1,8.1E1,2.8E1,1E0,5E0,1.2E1],"tree_param":{"num_deleted":"0","num_feature":"8","num_nodes":"99","size_leaf_vector":"1"}},{"base_weights":[-7.080741E-3,1.1434849E-1,-5.257216E-1,-6.8289495E-1,2.4789406E-1,-3.779337E-1,-7.6221573E-1,-4.528183E-1,-7.298599E-1,4.3640015E-1,-3.300201E-2,-2.6772755E-1,-8.0733013E-1,-1.3360041E-1,-7.892617E-1,-8.341366E-1,-2.550738E-1,-1.1692996E0,-6.9883674E-1,7.85984E-1,3.3367407E-1,-1.877209E-1,2.9785568E-2,-8.167055E-1,-2.2321293E-1,6.717694E-3,-8.249701E-1,-2.520447E-2,4.426636E-2,2.496611E-2,-7.991945E-1,-8.69447E-1,-5.8465125E-3,8.944219E-2,-3.3844227E-1,1.9852614E-2,-6.547714E-2,-8.1156987E-1,-6.423317E-1,-1.9982707E-2,8.5383064E-1,3.9770177E-1,1.1609546E-2,-8.187073E-1,-1.1327951E-1,1.1858601E-1,-1.4196324E-1,1.8173337E-3,-8.6902314E-1,-2.4057072E-1,5.794056E-2,-6.944988E-1,-1.0103358E0,-2.18879E-3,1.2124193E-1,-7.4790776E-1,-1.0130237E0,-4.857738E-2,-2.1504795E-2,1.875241E-2,-4.774499E-2,9.802354E-3,-2.0254549E-2,-3.793901E-2,-6.079939E-2,-2.2022566E-2,-3.7099283E-2,2.7068177E-2,-1.8194472E-2,5.6543093E-2,3.063256E-2,1.7794035E-2,4.5560416E-2,-2.1815559E-2,1.0733521E-2,-4.5565005E-2,-1.6081592E-2,-4.9012363E-2,-3.97489E-3,6.683696E-4,2.2872938E-2,1.9136186E-4,-2.4624735E-2,-6.5704145E-2,-3.154992E-2,1.0624141E-2,-1.3921931E-2,-3.686508E-2,-6.7824186E-3,-5.308607E-2,-1.5692918E-2,-1.4257431E-3,9.033291E-3,-4.072008E-2,-1.2504338E-2,-1.4822292E-2,-5.2545704E-2],"categories":[],"categories_nodes":[],"categories_segments":[],"categories_sizes":[],"default_left":[0,0,0,0,0,0,0,0,0,0,0,0,0,0,0,0,0,0,0,0,0,0,0,0,0,0,0,0,0,0,0,0,0,0,0,0,0,0,0,0,0,0,0,0,0,0,0,0,0,0,0,0,0,0,0,0,0,0,0,0,0,0,0,0,0,0,0,0,0,0,0,0,0,0,0,0,0,0,0,0,0,0,0,0,0,0,0,0,0,0,0,0,0,0,0,0,0],"id":12,"left_children":[1,3,5,7,9,11,13,15,17,19,21,23,25,27,29,31,33,35,37,39,41,43,45,47,49,-1,51,-1,53,-1,55,57,-1,59,61,-1,-1,63,65,67,69,71,73,75,77,79,81,-1,83,85,-1,87,89,-1,91,93,95,-1,-1,-1,-1,-1,-1,-1,-1,-1,-1,-1,-1,-1,-1,-1,-1,-1,-1,-1,-1,-1,-1,-1,-1,-1,-1,-1,-1,-1,-1,-1,-1,-1,-1,-1,-1,-1,-1,-1,-1],"loss_changes":[1.639923E2,2.2481744E2,1.6977707E1,2.9435883E0,9.574911E1,1.4264427E1,3.1078415E0,3.8590288E0,2.5910492E0,3.8593826E1,7.067978E0,5.804899E0,1.1407394E0,6.1539334E-1,2.7157135E0,3.541813E-1,1.0929766E0,3.81501E0,9.8202515E-1,1.3414185E1,1.7275818E1,9.771274E0,7.9170446E0,8.34919E-1,5.7482414E0,0E0,7.7360153E-1,0E0,5.2747127E-2,0E0,1.2163467E0,3.4472847E-1,0E0,2.7442958E0,1.1481078E0,0E0,0E0,6.785164E-1,2.932335E0,4.0580115E0,1.4407196E1,1.4687012E1,1.2827387E1,7.1945953E-1,5.45744E0,1.2188143E1,9.047319E0,0E0,9.71715E-1,3.9364634E0,0E0,8.328819E-1,4.8991203E-1,0E0,4.0748183E-2,4.7285233E0,5.573082E-1,0E0,0E0,0E0,0E0,0E0,0E0,0E0,0E0,0E0,0E0,0E0,0E0,0E0,0E0,0E0,0E0,0E0,0E0,0E0,0E0,0E0,0E0,0E0,0E0,0E0,0E0,0E0,0E0,0E0,0E0,0E0,0E0,0E0,0E0,0E0,0E0,0E0,0E0,0E0,0E0],"parents":[2147483647,0,0,1,1,2,2,3,3,4,4,5,5,6,6,7,7,8,8,9,9,10,10,11,11,12,12,13,13,14,14,15,15,16,16,17,17,18,18,19,19,20,20,21,21,22,22,23,23,24,24,26,26,28,28,30,30,31,31,33,33,34,34,37,37,38,38,39,39,40,40,41,41,42,42,43,43,44,44,45,45,46,46,48,48,49,49,51,51,52,52,54,54,55,55,56,56],"right_children":[2,4,6,8,10,12,14,16,18,20,22,24,26,28,30,32,34,36,38,40,42,44,46,48,50,-1,52,-1,54,-1,56,58,-1,60,62,-1,-1,64,66,68,70,72,74,76,78,80,82,-1,84,86,-1,88,90,-1,92,94,96,-1,-1,-1,-1,-1,-1,-1,-1,-1,-1,-1,-1,-1,-1,-1,-1,-1,-1,-1,-1,-1,-1,-1,-1,-1,-1,-1,-1,-1,-1,-1,-1,-1,-1,-1,-1,-1,-1,-1,-1],"split_conditions":[4.1501155E-1,1.0308215E-2,1.5E0,7.9E-1,9.813875E-1,9.9923134E-1,4.3705714E-1,3.9E-1,1.525E0,9.173891E-2,1.2763242E-1,6.948229E-1,1.0438596E0,2E0,6.948229E-1,5.5737704E-1,8.35E-1,8.35E-1,4.9734747E-1,3.6363637E-1,3.1248373E-1,9.939759E-1,3.5489863E-1,5.151515E-1,8.125E0,6.717694E-3,9.999225E-1,-2.520447E-2,4E0,2.496611E-2,8.29E0,1.66E0,-5.8465125E-3,6.5868264E-1,3.9E-1,1.9852614E-2,-6.547714E-2,4.9367088E-1,5.2701503E-1,7.45E-1,5.081301E-1,8.971292E-1,6.672026E-1,1.1762399E-1,2.9E-1,2.9499704E-1,1.63E0,1.8173337E-3,6.58858E-1,9.9040765E-1,5.794056E-2,1.18E0,9.99975E-1,-2.18879E-3,1.4955E1,7.87E0,8.49E0,-4.857738E-2,-2.1504795E-2,1.875241E-2,-4.774499E-2,9.802354E-3,-2.0254549E-2,-3.793901E-2,-6.079939E-2,-2.2022566E-2,-3.7099283E-2,2.7068177E-2,-1.8194472E-2,5.6543093E-2,3.063256E-2,1.7794035E-2,4.5560416E-2,-2.1815559E-2,1.0733521E-2,-4.5565005E-2,-1.6081592E-2,-4.9012363E-2,-3.97489E-3,6.683696E-4,2.2872938E-2,1.9136186E-4,-2.4624735E-2,-6.5704145E-2,-3.154992E-2,1.0624141E-2,-1.3921931E-2,-3.686508E-2,-6.7824186E-3,-5.308607E-2,-1.5692918E-2,-1.4257431E-3,9.033291E-3,-4.072008E-2,-1.2504338E-2,-1.4822292E-2,-5.2545704E-2],"split_indices":[7,7,1,1,6,7,7,4,2,7,7,6,6,1,6,6,2,2,6,6,7,6,7,6,2,0,7,0,1,0,1,2,0,6,1,0,0,6,6,4,6,6,6,7,1,7,1,0,6,6,0,1,7,0,2,2,4,0,0,0,0,0,0,0,0,0,0,0,0,0,0,0,0,0,0,0,0,0,0,0,0,0,0,0,0,0,0,0,0,0,0,0,0,0,0,0,0],"split_type":[0,0,0,0,0,0,0,0,0,0,0,0,0,0,0,0,0,0,0,0,0,0,0,0,0,0,0,0,0,0,0,0,0,0,0,0,0,0,0,0,0,0,0,0,0,0,0,0,0,0,0,0,0,0,0,0,0,0,0,0,0,0,0,0,0,0,0,0,0,0,0,0,0,0,0,0,0,0,0,0,0,0,0,0,0,0,0,0,0,0,0,0,0,0,0,0,0],"sum_hessian":[2.602E3,2.109E3,4.93E2,3.02E2,1.807E3,3.05E2,1.88E2,5.3E1,2.49E2,1.081E3,7.26E2,2.44E2,6.1E1,8E0,1.8E2,1.7E1,3.6E1,1.4E1,2.35E2,2.44E2,8.37E2,2.09E2,5.17E2,1.7E1,2.27E2,1E0,6E1,2E0,6E0,1E0,1.79E2,1.6E1,1E0,7E0,2.9E1,1E0,1.3E1,7.4E1,1.61E2,1.9E1,2.25E2,6.98E2,1.39E2,2.1E1,1.88E2,3.41E2,1.76E2,1E0,1.6E1,2.25E2,2E0,3.8E1,2.2E1,3E0,3E0,1.48E2,3.1E1,1.2E1,4E0,6E0,1E0,3E0,2.6E1,6.8E1,6E0,5.5E1,1.06E2,7E0,1.2E1,1.03E2,1.22E2,6.47E2,5.1E1,4.3E1,9.6E1,1.7E1,4E0,6E0,1.82E2,2.61E2,8E1,1.25E2,5.1E1,4E0,1.2E1,1.7E1,2.08E2,3.5E1,3E0,2E1,2E0,1E0,2E0,1.3E2,1.8E1,2E0,2.9E1],"tree_param":{"num_deleted":"0","num_feature":"8","num_nodes":"97","size_leaf_vector":"1"}},{"base_weights":[-1.4706741E-2,1.9431402E-1,-2.3970462E-1,-4.8269922E-1,2.4359252E-1,-1.0076026E-1,-3.4518442E-1,3.9542088E-1,-5.3771096E-1,2.849911E-1,-4.486553E-2,-2.8484553E-1,-5.616708E-3,-8.084268E-1,-2.4050184E-1,-1.3297391E-2,2.9044209E-2,-4.0625694E-1,-7.306759E-1,2.7186176E-1,1.3639119E0,-5.913296E-1,3.352123E-2,-1.2600878E-1,-6.4848715E-1,1.3543953E-2,-7.522584E-1,7.3216436E-3,-8.341773E-1,-1.7473966E-1,-6.4016175E-1,-6.140714E-1,-1.20902546E-1,-5.4709543E-2,-5.7674086E-1,4.104422E-1,1.5502381E-1,1.4985383E-2,7.1380995E-2,4.0846217E-2,-7.0844424E-1,1.4033577E-1,-3.4657943E-1,-6.6311455E-1,-5.01853E-2,-8.7227106E-1,-3.1376398E-1,-2.0815242E-2,5.2831626E-1,-1.7697993E-1,-1.1770852E0,-2.7795923E-1,2.8711129E-2,-9.1698927E-1,-6.311366E-1,-2.7679515E-1,2.4349429E-1,-9.2168784E-1,-5.1479244E-1,-3.314693E-2,2.1298587E-2,-9.529604E-3,3.7048914E-2,-9.763371E-3,-4.014788E-2,-2.4621934E-2,2.1592349E-2,-9.945396E-3,1.5244104E-2,-4.5984536E-2,-4.873081E-3,-5.8981352E-3,2.9765358E-2,-8.204628E-3,-3.5669632E-2,-4.186004E-2,-5.634229E-3,-6.2469203E-2,-8.9520245E-4,-5.57441E-2,-2.89175E-2,6.0328497E-3,-3.4531616E-2,2.4748263E-3,-1.8286226E-2,-8.660095E-3,5.1365294E-2,1.1590994E-2,-1.6856743E-2,-6.8604134E-2,-9.92738E-3,-2.6666617E-2,-7.528702E-4,-9.9426275E-3,-4.6999793E-2,-2.596341E-2,-5.892563E-2,-6.1961724E-3,-2.7304476E-2,1.5455305E-2,-4.1250322E-2,-1.4767297E-2,-5.1609445E-2,-1.8084634E-2,-5.143538E-2],"categories":[],"categories_nodes":[],"categories_segments":[],"categories_sizes":[],"default_left":[0,0,0,0,0,0,0,0,0,0,0,0,0,0,0,0,0,0,0,0,0,0,0,0,0,0,0,0,0,0,0,0,0,0,0,0,0,0,0,0,0,0,0,0,0,0,0,0,0,0,0,0,0,0,0,0,0,0,0,0,0,0,0,0,0,0,0,0,0,0,0,0,0,0,0,0,0,0,0,0,0,0,0,0,0,0,0,0,0,0,0,0,0,0,0,0,0,0,0,0,0,0,0,0,0],"id":13,"left_children":[1,3,5,7,9,11,13,15,17,19,21,23,25,27,29,-1,-1,31,33,35,37,39,41,43,45,47,49,51,53,55,57,59,61,-1,63,65,67,-1,-1,-1,69,71,73,75,77,79,81,83,85,87,89,91,-1,93,95,97,99,101,103,-1,-1,-1,-1,-1,-1,-1,-1,-1,-1,-1,-1,-1,-1,-1,-1,-1,-1,-1,-1,-1,-1,-1,-1,-1,-1,-1,-1,-1,-1,-1,-1,-1,-1,-1,-1,-1,-1,-1,-1,-1,-1,-1,-1,-1,-1],"loss_changes":[1.2255771E2,4.5189907E1,1.8358276E1,4.6568565E0,1.5059395E1,9.508789E0,3.4381363E1,8.9044267E-1,1.9100018E0,1.5239586E1,6.830674E0,1.0603818E1,5.146096E0,2.7578888E0,1.5210838E1,0E0,0E0,3.1280003E0,1.2714958E0,1.7585052E1,4.535122E-1,3.8772893E0,5.732676E0,5.2610006E0,3.921032E0,6.219191E0,1.9912229E0,9.682404E-1,1.5566559E0,2.14943E1,2.419693E0,1.857935E0,1.5827621E0,0E0,2.086895E0,9.836998E0,3.1513124E1,0E0,0E0,0E0,2.3626556E0,1.2997249E1,1.9580336E0,1.438817E0,4.429469E0,1.7083874E0,4.0125976E0,8.020991E0,7.879037E0,4.0551102E-1,6.8163776E-1,2.605216E-1,0E0,1.2670059E0,1.8373966E0,1.6563993E1,7.195534E0,1.3562222E0,4.2700624E0,0E0,0E0,0E0,0E0,0E0,0E0,0E0,0E0,0E0,0E0,0E0,0E0,0E0,0E0,0E0,0E0,0E0,0E0,0E0,0E0,0E0,0E0,0E0,0E0,0E0,0E0,0E0,0E0,0E0,0E0,0E0,0E0,0E0,0E0,0E0,0E0,0E0,0E0,0E0,0E0,0E0,0E0,0E0,0E0,0E0,0E0],"parents":[2147483647,0,0,1,1,2,2,3,3,4,4,5,5,6,6,7,7,8,8,9,9,10,10,11,11,12,12,13,13,14,14,17,17,18,18,19,19,20,20,21,21,22,22,23,23,24,24,25,25,26,26,27,27,28,28,29,29,30,30,31,31,32,32,34,34,35,35,36,36,40,40,41,41,42,42,43,43,44,44,45,45,46,46,47,47,48,48,49,49,50,50,51,51,53,53,54,54,55,55,56,56,57,57,58,58],"right_children":[2,4,6,8,10,12,14,16,18,20,22,24,26,28,30,-1,-1,32,34,36,38,40,42,44,46,48,50,52,54,56,58,60,62,-1,64,66,68,-1,-1,-1,70,72,74,76,78,80,82,84,86,88,90,92,-1,94,96,98,100,102,104,-1,-1,-1,-1,-1,-1,-1,-1,-1,-1,-1,-1,-1,-1,-1,-1,-1,-1,-1,-1,-1,-1,-1,-1,-1,-1,-1,-1,-1,-1,-1,-1,-1,-1,-1,-1,-1,-1,-1,-1,-1,-1,-1,-1,-1,-1],"split_conditions":[9.702073E-1,3.8650307E-1,2.49E0,8.2E-1,4.96E0,1.7E0,4.95E0,8E-2,4.98E0,9.593496E-1,3E0,8.35E-1,5.95E0,4E-1,8.29E0,-1.3297391E-2,2.9044209E-2,2.54E0,8.65E0,6.043956E-1,2.1E-1,1.2E-1,9.96E0,1.6E-1,1.5E0,4.33E0,9.45E-1,3.105E0,4.15E0,1.474E1,1.221E1,3.6363637E-1,1.4E0,-5.4709543E-2,1.303E1,2.1E-1,6.680162E-1,1.4985383E-2,7.1380995E-2,4.0846217E-2,8.07E0,1.667E1,6.787149E-1,6.1E-1,2.1E-1,8.5E-1,9.45E-1,1.63E0,1.18E0,1.2E-1,1.04E0,3.2E-1,2.8711129E-2,2.54E0,4.255E0,4.965E0,1.1792452E0,8.32E0,3.4E1,-3.314693E-2,2.1298587E-2,-9.529604E-3,3.7048914E-2,-9.763371E-3,-4.014788E-2,-2.4621934E-2,2.1592349E-2,-9.945396E-3,1.5244104E-2,-4.5984536E-2,-4.873081E-3,-5.8981352E-3,2.9765358E-2,-8.204628E-3,-3.5669632E-2,-4.186004E-2,-5.634229E-3,-6.2469203E-2,-8.9520245E-4,-5.57441E-2,-2.89175E-2,6.0328497E-3,-3.4531616E-2,2.4748263E-3,-1.8286226E-2,-8.660095E-3,5.1365294E-2,1.1590994E-2,-1.6856743E-2,-6.8604134E-2,-9.92738E-3,-2.6666617E-2,-7.528702E-4,-9.9426275E-3,-4.6999793E-2,-2.596341E-2,-5.892563E-2,-6.1961724E-3,-2.7304476E-2,1.5455305E-2,-4.1250322E-2,-1.4767297E-2,-5.1609445E-2,-1.8084634E-2,-5.143538E-2],"split_indices":[6,6,4,2,4,3,3,4,2,6,1,2,3,1,1,0,0,2,3,6,1,1,4,1,3,3,2,2,3,3,3,6,1,0,3,1,6,0,0,0,4,3,6,2,4,2,2,1,1,1,1,1,0,4,4,4,6,1,4,0,0,0,0,0,0,0,0,0,0,0,0,0,0,0,0,0,0,0,0,0,0,0,0,0,0,0,0,0,0,0,0,0,0,0,0,0,0,0,0,0,0,0,0,0,0],"split_type":[0,0,0,0,0,0,0,0,0,0,0,0,0,0,0,0,0,0,0,0,0,0,0,0,0,0,0,0,0,0,0,0,0,0,0,0,0,0,0,0,0,0,0,0,0,0,0,0,0,0,0,0,0,0,0,0,0,0,0,0,0,0,0,0,0,0,0,0,0,0,0,0,0,0,0,0,0,0,0,0,0,0,0,0,0,0,0,0,0,0,0,0,0,0,0,0,0,0,0,0,0,0,0,0,0],"sum_hessian":[2.604E3,1.35E3,1.254E3,9.1E1,1.259E3,5.42E2,7.12E2,5E0,8.6E1,1.101E3,1.58E2,1.84E2,3.58E2,1.3E2,5.82E2,1E0,4E0,5.3E1,3.3E1,1.089E3,1.2E1,1.9E1,1.39E2,1.29E2,5.5E1,3.5E2,8E0,4E0,1.26E2,5.01E2,8.1E1,3E1,2.3E1,8E0,2.5E1,4.97E2,5.92E2,1E0,1.1E1,1E0,1.8E1,1.09E2,3E1,1.5E1,1.14E2,3.2E1,2.3E1,3.29E2,2.1E1,4E0,4E0,3E0,1E0,8.7E1,3.9E1,4.03E2,9.8E1,2.3E1,5.8E1,2.9E1,1E0,2.2E1,1E0,1E1,1.5E1,1.1E1,4.86E2,1.76E2,4.16E2,1.3E1,5E0,7E1,3.9E1,2.1E1,9E0,1.1E1,4E0,2E0,1.12E2,1.6E1,1.6E1,1.1E1,1.2E1,2.74E2,5.5E1,9E0,1.2E1,1E0,3E0,3E0,1E0,1E0,2E0,3E0,8.4E1,3.4E1,5E0,2.58E2,1.45E2,9.3E1,5E0,4E0,1.9E1,4.6E1,1.2E1],"tree_param":{"num_deleted":"0","num_feature":"8","num_nodes":"105","size_leaf_vector":"1"}},{"base_weights":[-5.2832644E-3,1.1064205E-1,-4.5222998E-1,-5.614626E-1,2.3528375E-1,-3.419467E-1,-7.1434313E-1,-3.7928647E-1,-6.1723053E-1,6.1410344E-1,1.11310765E-1,-2.5851935E-1,-7.76728E-1,-6.752239E-1,-1.0448725E0,-6.7800814E-1,-2.2843368E-1,-7.394444E-1,-5.650147E-1,6.8375814E-1,-1.0711959E-1,2.577231E-1,-1.8992102E-2,6.056259E-4,-3.2532737E-1,-8.7358105E-1,1.2834442E-2,-7.525413E-1,-5.2247274E-1,-5.4380007E-2,-1.1167133E-2,-2.4389864E-3,-7.0122606E-1,-6.6272414E-1,-1.4965162E-1,-5.0721496E-1,-8.333593E-1,-5.831484E-1,-3.872735E-2,1.7420086E-1,7.1625185E-1,1.3504998E-1,-9.2935705E-1,5.738621E-3,4.1202435E-1,-2.2144909E-1,5.229371E-2,-5.5201787E-1,1.0724164E-1,-5.4571706E-1,-2.3443028E-1,-3.8596913E-1,-9.4680864E-1,-7.7570444E-1,-2.8353122E-1,6.410501E-1,-6.067915E-1,-3.747338E-2,-1.3029558E-2,-7.6064467E-3,-3.569668E-2,-1.5736035E-3,-2.2815783E-2,-2.9927928E-2,-2.9333115E-3,-4.296119E-2,-7.5181127E-3,-2.1113424E-2,-3.2758337E-2,8.09105E-3,-1.1479693E-2,2.212196E-2,-3.408032E-3,4.146053E-2,3.09342E-2,-4.616941E-2,1.1994335E-2,-5.6573935E-2,1.7190397E-2,3.1985722E-3,-4.0312003E-2,2.7025456E-2,8.129177E-3,-3.4975552E-3,-2.3536818E-2,5.570751E-3,-5.1426156E-3,-6.77712E-3,-3.8532034E-2,-2.6357563E-3,2.0289872E-2,-3.0912686E-2,6.4996067E-3,-7.3161433E-3,-2.633678E-2,-3.420944E-2,-5.277825E-4,-4.826787E-2,-1.8753887E-3,-3.671143E-2,-5.5193473E-2,3.1482134E-2,-4.487644E-2,5.1251877E-2,8.568755E-3,-3.3856403E-2,-1.3238296E-2],"categories":[],"categories_nodes":[],"categories_segments":[],"categories_sizes":[],"default_left":[0,0,0,0,0,0,0,0,0,0,0,0,0,0,0,0,0,0,0,0,0,0,0,0,0,0,0,0,0,0,0,0,0,0,0,0,0,0,0,0,0,0,0,0,0,0,0,0,0,0,0,0,0,0,0,0,0,0,0,0,0,0,0,0,0,0,0,0,0,0,0,0,0,0,0,0,0,0,0,0,0,0,0,0,0,0,0,0,0,0,0,0,0,0,0,0,0,0,0,0,0,0,0,0,0,0,0],"id":14,"left_children":[1,3,5,7,9,11,13,15,17,19,21,23,25,27,29,31,33,35,37,39,41,43,45,47,49,51,-1,53,55,-1,-1,-1,57,59,61,63,65,67,69,71,73,75,77,79,81,83,85,87,89,91,93,95,97,99,101,103,105,-1,-1,-1,-1,-1,-1,-1,-1,-1,-1,-1,-1,-1,-1,-1,-1,-1,-1,-1,-1,-1,-1,-1,-1,-1,-1,-1,-1,-1,-1,-1,-1,-1,-1,-1,-1,-1,-1,-1,-1,-1,-1,-1,-1,-1,-1,-1,-1,-1,-1],"loss_changes":[1.3585043E2,1.7454596E2,1.5365349E1,3.077919E0,8.2446365E1,1.3655354E1,1.350357E0,3.405097E0,1.1648178E0,2.1825653E1,2.5283175E1,5.574541E0,6.3297043E0,1.3193207E0,2.8362465E-1,3.4563828E-1,1.7483943E0,1.1258011E0,1.6761665E0,6.4154205E0,7.891224E0,2.42597E1,1.0143064E1,4.0074797E0,5.000458E0,1.6341324E0,0E0,8.012543E-1,5.4905367E0,0E0,0E0,0E0,3.3611774E-1,1.00568295E-1,1.6889853E0,9.072418E-1,7.3640823E-1,1.7161789E0,3.050989E-1,1.6554232E0,3.575821E0,3.661367E0,2.7050195E0,1.1305124E1,1.2315216E1,6.8783426E0,4.7811265E0,8.971069E-1,2.7434845E0,3.7073822E0,4.6359577E0,1.0003793E0,7.733841E-1,4.008789E-1,3.9292417E0,5.457313E-1,9.995098E-1,0E0,0E0,0E0,0E0,0E0,0E0,0E0,0E0,0E0,0E0,0E0,0E0,0E0,0E0,0E0,0E0,0E0,0E0,0E0,0E0,0E0,0E0,0E0,0E0,0E0,0E0,0E0,0E0,0E0,0E0,0E0,0E0,0E0,0E0,0E0,0E0,0E0,0E0,0E0,0E0,0E0,0E0,0E0,0E0,0E0,0E0,0E0,0E0,0E0,0E0],"parents":[2147483647,0,0,1,1,2,2,3,3,4,4,5,5,6,6,7,7,8,8,9,9,10,10,11,11,12,12,13,13,14,14,15,15,16,16,17,17,18,18,19,19,20,20,21,21,22,22,23,23,24,24,25,25,27,27,28,28,32,32,33,33,34,34,35,35,36,36,37,37,38,38,39,39,40,40,41,41,42,42,43,43,44,44,45,45,46,46,47,47,48,48,49,49,50,50,51,51,52,52,53,53,54,54,55,55,56,56],"right_children":[2,4,6,8,10,12,14,16,18,20,22,24,26,28,30,32,34,36,38,40,42,44,46,48,50,52,-1,54,56,-1,-1,-1,58,60,62,64,66,68,70,72,74,76,78,80,82,84,86,88,90,92,94,96,98,100,102,104,106,-1,-1,-1,-1,-1,-1,-1,-1,-1,-1,-1,-1,-1,-1,-1,-1,-1,-1,-1,-1,-1,-1,-1,-1,-1,-1,-1,-1,-1,-1,-1,-1,-1,-1,-1,-1,-1,-1,-1,-1,-1,-1,-1,-1,-1,-1,-1,-1,-1,-1],"split_conditions":[4.0723062E-1,1.4888214E-2,2.3E0,7.9E-1,6.043956E-1,9.995654E-1,1.289E1,2.34E-1,4.9734747E-1,1.9862561E-1,9.880952E-1,5.04E-1,2E0,4.974E0,7.5E1,3.6E-2,1.8082191E-1,9.78E-1,1.0308215E-2,3.8650307E-1,2.268E0,6.72E-1,1.2242399E-1,1.8E-1,3.9E-1,6.36E-1,1.2834442E-2,1.127219E0,4.998E0,-5.4380007E-2,-1.1167133E-2,-2.4389864E-3,5.5737704E-1,3.6E-1,5.141129E-1,7.56E-1,8.856E0,5.2701503E-1,8.9073634E-1,4.47E-1,5.060241E-1,1.6E-1,5.37E0,3.6230835E-1,2.4519579E-1,1.10086694E-1,3.5603362E-1,1.32E-1,1.1122994E0,1.6519824E0,9.5236284E-1,4.47E-1,5E0,1.0822511E0,1.1351352E0,4.58E0,9.997223E-1,-3.747338E-2,-1.3029558E-2,-7.6064467E-3,-3.569668E-2,-1.5736035E-3,-2.2815783E-2,-2.9927928E-2,-2.9333115E-3,-4.296119E-2,-7.5181127E-3,-2.1113424E-2,-3.2758337E-2,8.09105E-3,-1.1479693E-2,2.212196E-2,-3.408032E-3,4.146053E-2,3.09342E-2,-4.616941E-2,1.1994335E-2,-5.6573935E-2,1.7190397E-2,3.1985722E-3,-4.0312003E-2,2.7025456E-2,8.129177E-3,-3.4975552E-3,-2.3536818E-2,5.570751E-3,-5.1426156E-3,-6.77712E-3,-3.8532034E-2,-2.6357563E-3,2.0289872E-2,-3.0912686E-2,6.4996067E-3,-7.3161433E-3,-2.633678E-2,-3.420944E-2,-5.277825E-4,-4.826787E-2,-1.8753887E-3,-3.671143E-2,-5.5193473E-2,3.1482134E-2,-4.487644E-2,5.1251877E-2,8.568755E-3,-3.3856403E-2,-1.3238296E-2],"split_indices":[7,7,1,1,6,7,1,0,6,7,6,0,1,0,0,0,6,0,7,6,0,6,7,0,1,0,0,6,0,0,0,0,6,1,6,0,0,6,6,0,6,1,0,7,7,7,7,0,6,6,7,0,6,6,6,1,7,0,0,0,0,0,0,0,0,0,0,0,0,0,0,0,0,0,0,0,0,0,0,0,0,0,0,0,0,0,0,0,0,0,0,0,0,0,0,0,0,0,0,0,0,0,0,0,0,0,0],"split_type":[0,0,0,0,0,0,0,0,0,0,0,0,0,0,0,0,0,0,0,0,0,0,0,0,0,0,0,0,0,0,0,0,0,0,0,0,0,0,0,0,0,0,0,0,0,0,0,0,0,0,0,0,0,0,0,0,0,0,0,0,0,0,0,0,0,0,0,0,0,0,0,0,0,0,0,0,0,0,0,0,0,0,0,0,0,0,0,0,0,0,0,0,0,0,0,0,0,0,0,0,0,0,0,0,0,0,0],"sum_hessian":[2.62E3,2.081E3,5.39E2,3.25E2,1.756E3,3.81E2,1.58E2,7.8E1,2.47E2,4.32E2,1.324E3,3.21E2,6E1,1.44E2,1.4E1,2.5E1,5.3E1,7E1,1.77E2,3.94E2,3.8E1,6.23E2,7.01E2,6.6E1,2.55E2,5.5E1,5E0,9.3E1,5.1E1,1.3E1,1E0,1E0,2.4E1,7E0,4.6E1,2.2E1,4.8E1,1.71E2,6E0,2.4E1,3.7E2,3E1,8E0,2.37E2,3.86E2,1.82E2,5.19E2,1E1,5.6E1,7.3E1,1.82E2,8E0,4.7E1,8.8E1,5E0,3E0,4.8E1,2.1E1,3E0,1E0,6E0,3.4E1,1.2E1,1.8E1,4E0,4.6E1,2E0,5.5E1,1.16E2,3E0,3E0,1.1E1,1.3E1,1.68E2,2.02E2,2E0,2.8E1,7E0,1E0,2.22E2,1.5E1,2.54E2,1.32E2,1.14E2,6.8E1,3.76E2,1.43E2,4E0,6E0,3.7E1,1.9E1,6.6E1,7E0,1.41E2,4.1E1,4E0,4E0,4.6E1,1E0,8.1E1,7E0,2E0,3E0,1E0,2E0,3.9E1,9E0],"tree_param":{"num_deleted":"0","num_feature":"8","num_nodes":"107","size_leaf_vector":"1"}},{"base_weights":[-6.7082653E-3,8.460387E-2,-5.076622E-1,-5.9844273E-1,1.9214569E-1,-2.6816925E-1,-6.594192E-1,-2.0304945E-1,-6.25862E-1,3.5957953E-1,-5.642779E-2,-5.078063E-1,-7.177832E-2,-5.3573054E-1,-7.5077856E-1,-5.596884E-1,3.3465677E-1,-5.5822664E-1,-6.854494E-1,4.3611127E-1,4.0456425E-2,-4.5532638E-1,-3.6242947E-2,-3.8368398E-1,-9.104966E-1,5.239951E-2,-5.576032E-1,-3.2431778E-1,-8.2450134E-1,-8.2086676E-1,-6.177296E-1,-3.412729E-1,-4.8290253E-2,3.1383157E-2,4.8106304E-1,-6.0171384E-1,-5.399726E-3,-8.7069196E-1,-5.96129E-1,6.427301E-1,3.5342908E-1,-3.188605E-1,1.8802062E-1,-2.7163064E-1,-9.241418E-1,1.9927263E-2,-1.5052257E-1,-1.1094099E-1,-6.524648E-1,2.0049214E-3,-4.882714E-2,-8.1148E-2,3.9700305E-1,3.426326E-1,-4.196436E-2,-2.9434748E-2,-4.3035135E-1,-8.99277E-1,-3.6625427E-1,-3.0121326E-3,-8.2891715E-1,5.017623E-1,-7.21474E-1,-3.647962E-2,-3.531141E-3,-4.0351152E-3,9.190989E-3,3.6008645E-2,9.477933E-5,-2.1453867E-2,-3.440312E-2,1.6579239E-2,-5.856396E-3,-4.7153573E-2,-1.7152498E-2,-2.4492143E-2,-3.9558407E-2,1.8378401E-2,4.1367155E-2,1.5778035E-2,4.5872647E-2,2.3137562E-3,-2.817354E-2,6.401235E-3,4.5365117E-2,-4.0959567E-2,-5.8234035E-4,-5.0634712E-2,-3.1792521E-3,-1.1994853E-3,1.4507077E-2,-4.6809085E-2,-3.1867814E-3,-2.8046349E-2,7.7708103E-3,-3.6084663E-2,8.250181E-3,-1.8407812E-2,1.1980665E-3,3.0096931E-2,-2.8661197E-2,3.381586E-2,-2.480265E-2,-2.713764E-2,7.7997805E-3,5.721365E-4,-2.4764162E-2,-5.9084702E-2,-3.9869312E-2,9.303729E-4,-5.0694652E-2,-4.3626722E-2,-3.301937E-2,4.997058E-2,6.374854E-3,-4.9959846E-2,-3.110472E-2],"categories":[],"categories_nodes":[],"categories_segments":[],"categories_sizes":[],"default_left":[0,0,0,0,0,0,0,0,0,0,0,0,0,0,0,0,0,0,0,0,0,0,0,0,0,0,0,0,0,0,0,0,0,0,0,0,0,0,0,0,0,0,0,0,0,0,0,0,0,0,0,0,0,0,0,0,0,0,0,0,0,0,0,0,0,0,0,0,0,0,0,0,0,0,0,0,0,0,0,0,0,0,0,0,0,0,0,0,0,0,0,0,0,0,0,0,0,0,0,0,0,0,0,0,0,0,0,0,0,0,0,0,0,0,0,0,0],"id":15,"left_children":[1,3,5,7,9,11,13,15,17,19,21,23,25,27,29,31,33,35,37,39,41,43,45,47,49,51,53,55,57,59,61,63,-1,65,67,69,71,73,75,77,79,81,83,85,87,89,91,93,95,-1,-1,97,99,101,-1,103,105,107,109,-1,111,113,115,-1,-1,-1,-1,-1,-1,-1,-1,-1,-1,-1,-1,-1,-1,-1,-1,-1,-1,-1,-1,-1,-1,-1,-1,-1,-1,-1,-1,-1,-1,-1,-1,-1,-1,-1,-1,-1,-1,-1,-1,-1,-1,-1,-1,-1,-1,-1,-1,-1,-1,-1,-1,-1,-1],"loss_changes":[1.1956986E2,1.6252637E2,1.4470085E1,3.1361847E0,7.955536E1,7.399433E0,2.377617E0,4.214411E0,7.4985504E-1,2.787349E1,6.1833115E0,3.19944E0,5.3381414E0,6.325979E0,7.8912354E-1,8.2352495E-1,3.8451314E-1,3.290348E0,1.8801193E0,1.5506943E1,1.1830905E1,2.9353914E0,4.714627E0,4.0328674E0,1.0436888E0,3.299703E0,4.852043E0,1.9884524E0,1.212595E0,4.889183E-1,6.4013424E0,9.9946094E-1,0E0,8.31784E-2,6.8607676E-1,1.5979462E0,4.529952E-1,1.39505E0,1.7061844E0,1.3005096E1,1.3807213E1,5.8316097E0,6.7021694E0,3.9764533E0,6.9765186E-1,5.8573875E0,1.6441092E1,3.5630302E0,1.70366E0,0E0,0E0,1.5775183E0,4.321726E0,1.7347716E0,0E0,1.7979926E0,1.3539333E0,1.5120888E-1,2.0128767E0,0E0,6.33049E-2,8.0384207E-1,7.032032E-1,0E0,0E0,0E0,0E0,0E0,0E0,0E0,0E0,0E0,0E0,0E0,0E0,0E0,0E0,0E0,0E0,0E0,0E0,0E0,0E0,0E0,0E0,0E0,0E0,0E0,0E0,0E0,0E0,0E0,0E0,0E0,0E0,0E0,0E0,0E0,0E0,0E0,0E0,0E0,0E0,0E0,0E0,0E0,0E0,0E0,0E0,0E0,0E0,0E0,0E0,0E0,0E0,0E0,0E0],"parents":[2147483647,0,0,1,1,2,2,3,3,4,4,5,5,6,6,7,7,8,8,9,9,10,10,11,11,12,12,13,13,14,14,15,15,16,16,17,17,18,18,19,19,20,20,21,21,22,22,23,23,24,24,25,25,26,26,27,27,28,28,29,29,30,30,31,31,33,33,34,34,35,35,36,36,37,37,38,38,39,39,40,40,41,41,42,42,43,43,44,44,45,45,46,46,47,47,48,48,51,51,52,52,53,53,55,55,56,56,57,57,58,58,60,60,61,61,62,62],"right_children":[2,4,6,8,10,12,14,16,18,20,22,24,26,28,30,32,34,36,38,40,42,44,46,48,50,52,54,56,58,60,62,64,-1,66,68,70,72,74,76,78,80,82,84,86,88,90,92,94,96,-1,-1,98,100,102,-1,104,106,108,110,-1,112,114,116,-1,-1,-1,-1,-1,-1,-1,-1,-1,-1,-1,-1,-1,-1,-1,-1,-1,-1,-1,-1,-1,-1,-1,-1,-1,-1,-1,-1,-1,-1,-1,-1,-1,-1,-1,-1,-1,-1,-1,-1,-1,-1,-1,-1,-1,-1,-1,-1,-1,-1,-1,-1,-1,-1],"split_conditions":[4.4161317E-1,1.0308215E-2,7.5E-1,1.05E0,9.880952E-1,3.2E-1,2.3E0,8.6E-1,5.081301E-1,2.4519579E-1,8.26051E-2,1.014E0,1.3770492E0,9.768504E-1,8.29E0,6.289708E-1,8.7E-1,5.0268096E-1,1.209E0,9.173891E-2,6.680162E-1,2.544E0,2.5E0,1.8E-1,5.151515E-1,1.16E0,9.5447314E-1,1.542E0,2E0,9.5057034E-1,4.998E0,4.5875812E-1,-4.8290253E-2,5.0151974E-1,9.5E-1,3.45E0,1.95E0,9.375E-1,9.813875E-1,7.56E-1,8.971292E-1,3.307571E-1,4.35E0,6.2E-1,6.102E0,1.85E0,5.17E0,1.2E-1,9.96E-1,2.0049214E-3,-4.882714E-2,4.687207E-1,9.998959E-1,3.45E0,-4.196436E-2,1.26E0,8.9073634E-1,1.027027E0,1.542E0,-3.0121326E-3,1.0106888E0,4.58E0,5.219098E-1,-3.647962E-2,-3.531141E-3,-4.0351152E-3,9.190989E-3,3.6008645E-2,9.477933E-5,-2.1453867E-2,-3.440312E-2,1.6579239E-2,-5.856396E-3,-4.7153573E-2,-1.7152498E-2,-2.4492143E-2,-3.9558407E-2,1.8378401E-2,4.1367155E-2,1.5778035E-2,4.5872647E-2,2.3137562E-3,-2.817354E-2,6.401235E-3,4.5365117E-2,-4.0959567E-2,-5.8234035E-4,-5.0634712E-2,-3.1792521E-3,-1.1994853E-3,1.4507077E-2,-4.6809085E-2,-3.1867814E-3,-2.8046349E-2,7.7708103E-3,-3.6084663E-2,8.250181E-3,-1.8407812E-2,1.1980665E-3,3.0096931E-2,-2.8661197E-2,3.381586E-2,-2.480265E-2,-2.713764E-2,7.7997805E-3,5.721365E-4,-2.4764162E-2,-5.9084702E-2,-3.9869312E-2,9.303729E-4,-5.0694652E-2,-4.3626722E-2,-3.301937E-2,4.997058E-2,6.374854E-3,-4.9959846E-2,-3.110472E-2],"split_indices":[7,7,1,3,6,1,1,3,6,7,7,0,6,7,3,6,3,6,0,7,6,0,1,1,6,6,7,0,1,6,0,6,0,6,3,3,3,6,6,0,6,7,0,1,0,1,3,1,0,0,0,7,7,3,0,0,6,6,0,0,6,1,7,0,0,0,0,0,0,0,0,0,0,0,0,0,0,0,0,0,0,0,0,0,0,0,0,0,0,0,0,0,0,0,0,0,0,0,0,0,0,0,0,0,0,0,0,0,0,0,0,0,0,0,0,0,0],"split_type":[0,0,0,0,0,0,0,0,0,0,0,0,0,0,0,0,0,0,0,0,0,0,0,0,0,0,0,0,0,0,0,0,0,0,0,0,0,0,0,0,0,0,0,0,0,0,0,0,0,0,0,0,0,0,0,0,0,0,0,0,0,0,0,0,0,0,0,0,0,0,0,0,0,0,0,0,0,0,0,0,0,0,0,0,0,0,0,0,0,0,0,0,0,0,0,0,0,0,0,0,0,0,0,0,0,0,0,0,0,0,0,0,0,0,0,0,0],"sum_hessian":[2.612E3,2.21E3,4.02E2,3E2,1.91E3,1.57E2,2.45E2,2E1,2.8E2,1.141E3,7.69E2,7E1,8.7E1,1.07E2,1.38E2,1.2E1,8E0,1.36E2,1.44E2,9.2E2,2.21E2,3.6E1,7.33E2,5.5E1,1.5E1,7E1,1.7E1,6.3E1,4.4E1,8.7E1,5.1E1,9E0,3E0,3E0,5E0,1.26E2,1E1,4.4E1,1E2,2.61E2,6.59E2,6.4E1,1.57E2,2.7E1,9E0,4.92E2,2.41E2,2.8E1,2.7E1,1E0,1.4E1,5.1E1,1.9E1,4E0,1.3E1,1.7E1,4.6E1,3.7E1,7E0,1E0,8.6E1,4E0,4.7E1,3E0,6E0,2E0,1E0,3E0,2E0,4.4E1,8.2E1,2E0,8E0,3.8E1,6E0,6.7E1,3.3E1,1.06E2,1.55E2,6.19E2,4E1,2.6E1,3.8E1,1.46E2,1.1E1,8E0,1.9E1,8E0,1E0,4.24E2,6.8E1,2.3E1,2.18E2,1E1,1.8E1,2.5E1,2E0,1.3E1,3.8E1,1.6E1,3E0,3E0,1E0,4E0,1.3E1,6E0,4E1,7E0,3E1,5E0,2E0,6.5E1,2.1E1,1E0,3E0,1E1,3.7E1],"tree_param":{"num_deleted":"0","num_feature":"8","num_nodes":"117","size_leaf_vector":"1"}},{"base_weights":[7.710698E-3,1.12565085E-1,-4.611323E-1,-5.428107E-1,2.2398564E-1,-2.8317627E-1,-6.093653E-1,-1.7553316E-1,-5.693505E-1,5.055088E-1,1.6154927E-1,-3.016138E-1,5.6014057E-2,-5.3350322E-2,-6.463648E-1,-6.6803455E-1,2.1681665E-1,-4.257102E-1,-5.932128E-1,-3.6451206E-2,5.817013E-1,1.8709968E-1,-3.296214E-1,-4.8643607E-1,-1.6242324E-1,-2.0314932E-2,2.0796029E-2,-5.71106E-1,-7.506498E-1,-2.1221328E-1,-5.4070663E-2,5.0567985E-3,4.63027E-1,-6.9846904E-1,-2.605429E-1,-8.820505E-1,-5.7151335E-1,-4.3914646E-1,1.4532429E-1,1.450632E0,5.4811066E-1,2.338008E-1,-1.9979326E-2,-2.772987E-1,-1.1628637E0,-4.2842254E-1,-6.1844554E-2,4.311218E-1,-2.4261363E-1,1.8804705E-1,-3.6687315E-2,-3.789663E-1,-6.800442E-1,-8.603406E-1,-6.7779547E-1,-1.6740639E-2,1.0995229E-3,9.472624E-3,-1.827101E-2,3.4658313E-2,9.161632E-5,-4.199567E-2,-1.9831214E-2,1.4777683E-2,-2.0923087E-2,-7.73443E-3,-4.910266E-2,-1.2946158E-2,-2.9542178E-2,-3.8526375E-3,-2.4898846E-2,1.6554222E-2,-1.5213159E-2,7.845887E-2,9.593094E-3,1.5471125E-2,3.2197785E-2,-4.2230997E-2,1.2012578E-2,1.0811245E-2,-7.070894E-3,-3.322477E-2,-1.008455E-2,-6.60894E-2,-1.7152285E-2,-7.633867E-3,-2.8670838E-2,-6.5135956E-3,2.4026325E-2,-4.593833E-3,-2.2353021E-2,1.0936102E-2,2.4005533E-3,-4.490368E-3,1.3690829E-2,-2.5050316E-2,-6.3893497E-3,-3.8270783E-2,-1.1868128E-2,-3.019454E-2,-4.7635898E-2,-2.2024265E-2,-3.814655E-2],"categories":[],"categories_nodes":[],"categories_segments":[],"categories_sizes":[],"default_left":[0,0,0,0,0,0,0,0,0,0,0,0,0,0,0,0,0,0,0,0,0,0,0,0,0,0,0,0,0,0,0,0,0,0,0,0,0,0,0,0,0,0,0,0,0,0,0,0,0,0,0,0,0,0,0,0,0,0,0,0,0,0,0,0,0,0,0,0,0,0,0,0,0,0,0,0,0,0,0,0,0,0,0,0,0,0,0,0,0,0,0,0,0,0,0,0,0,0,0,0,0,0,0],"id":16,"left_children":[1,3,5,7,9,11,13,15,17,19,21,23,-1,25,27,29,31,33,35,37,39,41,43,45,47,-1,49,51,53,55,-1,57,59,61,63,65,67,69,71,73,75,77,79,81,83,85,-1,87,89,91,93,95,97,99,101,-1,-1,-1,-1,-1,-1,-1,-1,-1,-1,-1,-1,-1,-1,-1,-1,-1,-1,-1,-1,-1,-1,-1,-1,-1,-1,-1,-1,-1,-1,-1,-1,-1,-1,-1,-1,-1,-1,-1,-1,-1,-1,-1,-1,-1,-1,-1,-1],"loss_changes":[1.26147934E2,1.532494E2,1.2199173E1,2.8730392E0,3.1434395E1,5.9012947E0,5.2114487E0,4.395963E0,7.209015E-1,1.3441513E1,1.8497044E1,5.400528E0,0E0,4.533365E-1,1.4470596E0,1.654778E0,6.7544556E-1,1.8002553E0,1.0064011E0,3.0650244E0,7.523445E0,1.3514816E1,2.860158E0,3.4319153E0,5.958979E0,0E0,1.5111116E-1,2.735466E0,1.9203949E-1,1.7964226E-1,0E0,6.1574465E-1,6.3556385E-1,3.499775E-1,